<?xml version="1.0"?>
<opencv_storage>
<cascade>
  <stageType>BOOST</stageType>
  <featureType>HAAR</featureType>
  <height>25</height>
  <width>25</width>
  <stageParams>
    <boostType>GAB</boostType>
    <minHitRate>9.9500000476837158e-01</minHitRate>
    <maxFalseAlarm>5.0000000000000000e-01</maxFalseAlarm>
    <weightTrimRate>9.4999998807907104e-01</weightTrimRate>
    <maxDepth>1</maxDepth>
    <maxWeakCount>100</maxWeakCount></stageParams>
  <featureParams>
    <maxCatCount>0</maxCatCount>
    <featSize>1</featSize>
    <mode>BASIC</mode></featureParams>
  <stageNum>20</stageNum>
  <stages>
    <!-- stage 0 -->
    <_>
      <maxWeakCount>3</maxWeakCount>
      <stageThreshold>-2.5621318817138672e-01</stageThreshold>
      <weakClassifiers>
        <_>
          <internalNodes>
            0 -1 0 -1.1605904996395111e-01</internalNodes>
          <leafValues>
            1. -7.0940172672271729e-01</leafValues></_>
        <_>
          <internalNodes>
            0 -1 1 8.3809688687324524e-02</internalNodes>
          <leafValues>
            -4.1954445838928223e-01 1.</leafValues></_>
        <_>
          <internalNodes>
            0 -1 3 -3.6345839500427246e-02</internalNodes>
          <leafValues>
            8.7273299694061279e-01 -5.2268534898757935e-01</leafValues></_></weakClassifiers></_>
    <!-- stage 1 -->
    <_>
      <maxWeakCount>3</maxWeakCount>
      <stageThreshold>-9.3350574374198914e-02</stageThreshold>
      <weakClassifiers>
        <_>
          <internalNodes>
            0 -1 23 1.6737437248229980e-01</internalNodes>
          <leafValues>
            -6.2295079231262207e-01 8.8888889551162720e-01</leafValues></_>
        <_>
          <internalNodes>
            0 -1 36 3.5049943253397942e-03</internalNodes>
          <leafValues>
            2.7003949880599976e-01 -9.7011840343475342e-01</leafValues></_>
        <_>
          <internalNodes>
            0 -1 48 -1.6205734573304653e-03</internalNodes>
          <leafValues>
            -9.5111483335494995e-01 2.5956073403358459e-01</leafValues></_></weakClassifiers></_>
    <!-- stage 2 -->
    <_>
      <maxWeakCount>3</maxWeakCount>
      <stageThreshold>-7.7013474702835083e-01</stageThreshold>
      <weakClassifiers>
        <_>
          <internalNodes>
            0 -1 29 2.5058970786631107e-03</internalNodes>
          <leafValues>
            -6.5217393636703491e-01 6.0000002384185791e-01</leafValues></_>
        <_>
          <internalNodes>
            0 -1 18 -4.5182719826698303e-02</internalNodes>
          <leafValues>
            6.8684041500091553e-01 -6.0154926776885986e-01</leafValues></_>
        <_>
          <internalNodes>
            0 -1 66 -2.6706836069934070e-04</internalNodes>
          <leafValues>
            -7.6155060529708862e-01 4.8358842730522156e-01</leafValues></_></weakClassifiers></_>
    <!-- stage 3 -->
    <_>
      <maxWeakCount>3</maxWeakCount>
      <stageThreshold>-5.2138912677764893e-01</stageThreshold>
      <weakClassifiers>
        <_>
          <internalNodes>
            0 -1 44 -6.1229948187246919e-04</internalNodes>
          <leafValues>
            8.3333331346511841e-01 -6.8965518474578857e-01</leafValues></_>
        <_>
          <internalNodes>
            0 -1 60 -1.1367113329470158e-03</internalNodes>
          <leafValues>
            7.3142433166503906e-01 -6.2470716238021851e-01</leafValues></_>
        <_>
          <internalNodes>
            0 -1 54 2.8290750924497843e-03</internalNodes>
          <leafValues>
            -5.6315827369689941e-01 8.9929568767547607e-01</leafValues></_></weakClassifiers></_>
    <!-- stage 4 -->
    <_>
      <maxWeakCount>3</maxWeakCount>
      <stageThreshold>-6.4220178127288818e-01</stageThreshold>
      <weakClassifiers>
        <_>
          <internalNodes>
            0 -1 38 5.1356953918002546e-05</internalNodes>
          <leafValues>
            -7.3831772804260254e-01 5.7575756311416626e-01</leafValues></_>
        <_>
          <internalNodes>
            0 -1 8 5.8449943026062101e-05</internalNodes>
          <leafValues>
            -5.8200079202651978e-01 7.9791659116744995e-01</leafValues></_>
        <_>
          <internalNodes>
            0 -1 35 2.2062538191676140e-03</internalNodes>
          <leafValues>
            -6.3595861196517944e-01 8.4586435556411743e-01</leafValues></_></weakClassifiers></_>
    <!-- stage 5 -->
    <_>
      <maxWeakCount>3</maxWeakCount>
      <stageThreshold>-6.5835642814636230e-01</stageThreshold>
      <weakClassifiers>
        <_>
          <internalNodes>
            0 -1 45 3.8491752929985523e-03</internalNodes>
          <leafValues>
            -6.6666668653488159e-01 6.1538463830947876e-01</leafValues></_>
        <_>
          <internalNodes>
            0 -1 31 1.7568971088621765e-05</internalNodes>
          <leafValues>
            -6.7444378137588501e-01 5.5324500799179077e-01</leafValues></_>
        <_>
          <internalNodes>
            0 -1 42 6.8596156779676676e-04</internalNodes>
          <leafValues>
            -5.4493474960327148e-01 7.1767932176589966e-01</leafValues></_></weakClassifiers></_>
    <!-- stage 6 -->
    <_>
      <maxWeakCount>3</maxWeakCount>
      <stageThreshold>-6.0306215286254883e-01</stageThreshold>
      <weakClassifiers>
        <_>
          <internalNodes>
            0 -1 28 -1.0909539414569736e-03</internalNodes>
          <leafValues>
            5.0000000000000000e-01 -7.0370370149612427e-01</leafValues></_>
        <_>
          <internalNodes>
            0 -1 50 4.0737504605203867e-05</internalNodes>
          <leafValues>
            -6.0512900352478027e-01 5.2190947532653809e-01</leafValues></_>
        <_>
          <internalNodes>
            0 -1 49 3.2690244261175394e-03</internalNodes>
          <leafValues>
            -4.2126792669296265e-01 8.7742620706558228e-01</leafValues></_></weakClassifiers></_>
    <!-- stage 7 -->
    <_>
      <maxWeakCount>4</maxWeakCount>
      <stageThreshold>-8.4341353178024292e-01</stageThreshold>
      <weakClassifiers>
        <_>
          <internalNodes>
            0 -1 19 3.2431080471724272e-03</internalNodes>
          <leafValues>
            -6.0000002384185791e-01 1.</leafValues></_>
        <_>
          <internalNodes>
            0 -1 41 -1.0066726244986057e-03</internalNodes>
          <leafValues>
            7.5352871417999268e-01 -4.7383737564086914e-01</leafValues></_>
        <_>
          <internalNodes>
            0 -1 43 -4.8045171424746513e-03</internalNodes>
          <leafValues>
            7.4435991048812866e-01 -4.7237426042556763e-01</leafValues></_>
        <_>
          <internalNodes>
            0 -1 57 1.0082069784402847e-03</internalNodes>
          <leafValues>
            -4.2877629399299622e-01 7.0279806852340698e-01</leafValues></_></weakClassifiers></_>
    <!-- stage 8 -->
    <_>
      <maxWeakCount>3</maxWeakCount>
      <stageThreshold>-3.1904906034469604e-01</stageThreshold>
      <weakClassifiers>
        <_>
          <internalNodes>
            0 -1 58 7.4235326610505581e-04</internalNodes>
          <leafValues>
            -6.3333332538604736e-01 8.0000001192092896e-01</leafValues></_>
        <_>
          <internalNodes>
            0 -1 27 -6.3210423104465008e-04</internalNodes>
          <leafValues>
            7.6694619655609131e-01 -4.2357197403907776e-01</leafValues></_>
        <_>
          <internalNodes>
            0 -1 32 -2.4460093118250370e-03</internalNodes>
          <leafValues>
            7.3785620927810669e-01 -4.3620094656944275e-01</leafValues></_></weakClassifiers></_>
    <!-- stage 9 -->
    <_>
      <maxWeakCount>4</maxWeakCount>
      <stageThreshold>-8.3738237619400024e-01</stageThreshold>
      <weakClassifiers>
        <_>
          <internalNodes>
            0 -1 7 -3.2467566430568695e-02</internalNodes>
          <leafValues>
            3.3333334326744080e-01 -6.6355139017105103e-01</leafValues></_>
        <_>
          <internalNodes>
            0 -1 34 2.7423216961324215e-03</internalNodes>
          <leafValues>
            2.5192779302597046e-01 -1.</leafValues></_>
        <_>
          <internalNodes>
            0 -1 12 -9.0412469580769539e-04</internalNodes>
          <leafValues>
            -7.4860936403274536e-01 3.2408863306045532e-01</leafValues></_>
        <_>
          <internalNodes>
            0 -1 2 1.3514619786292315e-03</internalNodes>
          <leafValues>
            4.0875780582427979e-01 -7.4984741210937500e-01</leafValues></_></weakClassifiers></_>
    <!-- stage 10 -->
    <_>
      <maxWeakCount>4</maxWeakCount>
      <stageThreshold>-8.4437304735183716e-01</stageThreshold>
      <weakClassifiers>
        <_>
          <internalNodes>
            0 -1 17 1.4705069363117218e-01</internalNodes>
          <leafValues>
            -5.7142859697341919e-01 8.5714286565780640e-01</leafValues></_>
        <_>
          <internalNodes>
            0 -1 63 -3.6575319245457649e-04</internalNodes>
          <leafValues>
            -8.1938207149505615e-01 3.2428362965583801e-01</leafValues></_>
        <_>
          <internalNodes>
            0 -1 65 -5.9925660025328398e-04</internalNodes>
          <leafValues>
            -8.7298113107681274e-01 3.0007728934288025e-01</leafValues></_>
        <_>
          <internalNodes>
            0 -1 55 8.5859565297141671e-04</internalNodes>
          <leafValues>
            2.7575299143791199e-01 -9.7579079866409302e-01</leafValues></_></weakClassifiers></_>
    <!-- stage 11 -->
    <_>
      <maxWeakCount>5</maxWeakCount>
      <stageThreshold>-9.9585670232772827e-01</stageThreshold>
      <weakClassifiers>
        <_>
          <internalNodes>
            0 -1 13 -1.7137339711189270e-01</internalNodes>
          <leafValues>
            1. -5.6250000000000000e-01</leafValues></_>
        <_>
          <internalNodes>
            0 -1 16 1.1477466672658920e-02</internalNodes>
          <leafValues>
            -6.7370957136154175e-01 5.4270774126052856e-01</leafValues></_>
        <_>
          <internalNodes>
            0 -1 24 2.5082973297685385e-04</internalNodes>
          <leafValues>
            4.4379252195358276e-01 -6.9078749418258667e-01</leafValues></_>
        <_>
          <internalNodes>
            0 -1 15 -1.2214318849146366e-03</internalNodes>
          <leafValues>
            5.8353346586227417e-01 -5.1532286405563354e-01</leafValues></_>
        <_>
          <internalNodes>
            0 -1 6 -1.8340521492063999e-03</internalNodes>
          <leafValues>
            -8.6881047487258911e-01 3.9416110515594482e-01</leafValues></_></weakClassifiers></_>
    <!-- stage 12 -->
    <_>
      <maxWeakCount>3</maxWeakCount>
      <stageThreshold>-4.1365608572959900e-01</stageThreshold>
      <weakClassifiers>
        <_>
          <internalNodes>
            0 -1 14 -4.9321278929710388e-03</internalNodes>
          <leafValues>
            1. -6.5289258956909180e-01</leafValues></_>
        <_>
          <internalNodes>
            0 -1 22 -1.6290154308080673e-02</internalNodes>
          <leafValues>
            7.3227387666702271e-01 -5.4869413375854492e-01</leafValues></_>
        <_>
          <internalNodes>
            0 -1 30 -6.1029469361528754e-04</internalNodes>
          <leafValues>
            7.8793060779571533e-01 -4.5526334643363953e-01</leafValues></_></weakClassifiers></_>
    <!-- stage 13 -->
    <_>
      <maxWeakCount>4</maxWeakCount>
      <stageThreshold>-8.8056010007858276e-01</stageThreshold>
      <weakClassifiers>
        <_>
          <internalNodes>
            0 -1 46 -1.4115701196715236e-03</internalNodes>
          <leafValues>
            5.6521737575531006e-01 -6.2393164634704590e-01</leafValues></_>
        <_>
          <internalNodes>
            0 -1 68 1.3876073353458196e-04</internalNodes>
          <leafValues>
            2.8106775879859924e-01 -8.3135372400283813e-01</leafValues></_>
        <_>
          <internalNodes>
            0 -1 20 2.0726947113871574e-03</internalNodes>
          <leafValues>
            2.6430329680442810e-01 -8.7555873394012451e-01</leafValues></_>
        <_>
          <internalNodes>
            0 -1 5 -2.5342014851048589e-04</internalNodes>
          <leafValues>
            -7.3877549171447754e-01 3.1042191386222839e-01</leafValues></_></weakClassifiers></_>
    <!-- stage 14 -->
    <_>
      <maxWeakCount>2</maxWeakCount>
      <stageThreshold>-3.0160987377166748e-01</stageThreshold>
      <weakClassifiers>
        <_>
          <internalNodes>
            0 -1 62 2.1485299803316593e-03</internalNodes>
          <leafValues>
            -6.0975611209869385e-01 8.8235294818878174e-01</leafValues></_>
        <_>
          <internalNodes>
            0 -1 52 2.6661431184038520e-04</internalNodes>
          <leafValues>
            3.0814620852470398e-01 -8.5025292634963989e-01</leafValues></_></weakClassifiers></_>
    <!-- stage 15 -->
    <_>
      <maxWeakCount>3</maxWeakCount>
      <stageThreshold>-1.0612626373767853e-01</stageThreshold>
      <weakClassifiers>
        <_>
          <internalNodes>
            0 -1 61 -1.9582142122089863e-03</internalNodes>
          <leafValues>
            5.2380955219268799e-01 -5.9663867950439453e-01</leafValues></_>
        <_>
          <internalNodes>
            0 -1 59 -2.4611514527350664e-04</internalNodes>
          <leafValues>
            -8.1638568639755249e-01 2.2852563858032227e-01</leafValues></_>
        <_>
          <internalNodes>
            0 -1 56 1.5172560233622789e-03</internalNodes>
          <leafValues>
            2.6198676228523254e-01 -8.3744257688522339e-01</leafValues></_></weakClassifiers></_>
    <!-- stage 16 -->
    <_>
      <maxWeakCount>3</maxWeakCount>
      <stageThreshold>-5.9329253435134888e-01</stageThreshold>
      <weakClassifiers>
        <_>
          <internalNodes>
            0 -1 47 2.5265589356422424e-03</internalNodes>
          <leafValues>
            -5.4054055362939835e-02 -8.4848487377166748e-01</leafValues></_>
        <_>
          <internalNodes>
            0 -1 10 -9.0431645512580872e-03</internalNodes>
          <leafValues>
            -1. 1.2510983645915985e-01</leafValues></_>
        <_>
          <internalNodes>
            0 -1 11 4.3242927640676498e-03</internalNodes>
          <leafValues>
            4.0525189042091370e-01 -6.6434830427169800e-01</leafValues></_></weakClassifiers></_>
    <!-- stage 17 -->
    <_>
      <maxWeakCount>5</maxWeakCount>
      <stageThreshold>-4.5386338233947754e-01</stageThreshold>
      <weakClassifiers>
        <_>
          <internalNodes>
            0 -1 9 -2.9806918464601040e-03</internalNodes>
          <leafValues>
            8.6666667461395264e-01 -5.8399999141693115e-01</leafValues></_>
        <_>
          <internalNodes>
            0 -1 53 -1.1643567122519016e-03</internalNodes>
          <leafValues>
            5.9657949209213257e-01 -4.7467482089996338e-01</leafValues></_>
        <_>
          <internalNodes>
            0 -1 67 -1.0716798715293407e-03</internalNodes>
          <leafValues>
            -8.5132515430450439e-01 3.5312885046005249e-01</leafValues></_>
        <_>
          <internalNodes>
            0 -1 39 1.8511900270823389e-04</internalNodes>
          <leafValues>
            5.1669532060623169e-01 -5.2970063686370850e-01</leafValues></_>
        <_>
          <internalNodes>
            0 -1 21 5.3663523867726326e-03</internalNodes>
          <leafValues>
            -2.6501271128654480e-01 9.6350955963134766e-01</leafValues></_></weakClassifiers></_>
    <!-- stage 18 -->
    <_>
      <maxWeakCount>4</maxWeakCount>
      <stageThreshold>-1.2359822988510132e+00</stageThreshold>
      <weakClassifiers>
        <_>
          <internalNodes>
            0 -1 25 -2.0615227520465851e-02</internalNodes>
          <leafValues>
            6.4705884456634521e-01 -5.7723575830459595e-01</leafValues></_>
        <_>
          <internalNodes>
            0 -1 51 5.7803990785032511e-04</internalNodes>
          <leafValues>
            4.4062909483909607e-01 -5.5748707056045532e-01</leafValues></_>
        <_>
          <internalNodes>
            0 -1 33 4.8916129162535071e-04</internalNodes>
          <leafValues>
            4.7005018591880798e-01 -6.3254541158676147e-01</leafValues></_>
        <_>
          <internalNodes>
            0 -1 26 -6.6620064899325371e-04</internalNodes>
          <leafValues>
            4.5497411489486694e-01 -5.7130968570709229e-01</leafValues></_></weakClassifiers></_>
    <!-- stage 19 -->
    <_>
      <maxWeakCount>4</maxWeakCount>
      <stageThreshold>-5.1053023338317871e-01</stageThreshold>
      <weakClassifiers>
        <_>
          <internalNodes>
            0 -1 37 4.2404863052070141e-03</internalNodes>
          <leafValues>
            -6.8000000715255737e-01 2.0000000298023224e-01</leafValues></_>
        <_>
          <internalNodes>
            0 -1 64 -2.6490623131394386e-03</internalNodes>
          <leafValues>
            -9.3869805335998535e-01 1.6402126848697662e-01</leafValues></_>
        <_>
          <internalNodes>
            0 -1 40 -9.2393606901168823e-03</internalNodes>
          <leafValues>
            9.5050901174545288e-01 -2.8327468037605286e-01</leafValues></_>
        <_>
          <internalNodes>
            0 -1 4 -3.4093440626747906e-04</internalNodes>
          <leafValues>
            -5.9127682447433472e-01 4.6665036678314209e-01</leafValues></_></weakClassifiers></_></stages>
  <features>
    <_>
      <rects>
        <_>
          0 1 20 20 -1.</_>
        <_>
          0 11 20 10 2.</_></rects>
      <tilted>0</tilted></_>
    <_>
      <rects>
        <_>
          0 4 16 18 -1.</_>
        <_>
          8 4 8 18 2.</_></rects>
      <tilted>0</tilted></_>
    <_>
      <rects>
        <_>
          0 8 1 10 -1.</_>
        <_>
          0 13 1 5 2.</_></rects>
      <tilted>0</tilted></_>
    <_>
      <rects>
        <_>
          0 11 12 8 -1.</_>
        <_>
          6 11 6 8 2.</_></rects>
      <tilted>0</tilted></_>
    <_>
      <rects>
        <_>
          0 17 2 6 -1.</_>
        <_>
          0 17 1 3 2.</_>
        <_>
          1 20 1 3 2.</_></rects>
      <tilted>0</tilted></_>
    <_>
      <rects>
        <_>
          0 19 2 2 -1.</_>
        <_>
          0 19 1 1 2.</_>
        <_>
          1 20 1 1 2.</_></rects>
      <tilted>0</tilted></_>
    <_>
      <rects>
        <_>
          1 0 12 2 -1.</_>
        <_>
          1 1 12 1 2.</_></rects>
      <tilted>0</tilted></_>
    <_>
      <rects>
        <_>
          1 9 5 16 -1.</_>
        <_>
          1 17 5 8 2.</_></rects>
      <tilted>0</tilted></_>
    <_>
      <rects>
        <_>
          1 14 1 2 -1.</_>
        <_>
          1 15 1 1 2.</_></rects>
      <tilted>0</tilted></_>
    <_>
      <rects>
        <_>
          2 23 6 2 -1.</_>
        <_>
          2 23 3 1 2.</_>
        <_>
          5 24 3 1 2.</_></rects>
      <tilted>0</tilted></_>
    <_>
      <rects>
        <_>
          3 0 18 4 -1.</_>
        <_>
          3 0 9 2 2.</_>
        <_>
          12 2 9 2 2.</_></rects>
      <tilted>0</tilted></_>
    <_>
      <rects>
        <_>
          3 5 16 2 -1.</_>
        <_>
          11 5 8 2 2.</_></rects>
      <tilted>0</tilted></_>
    <_>
      <rects>
        <_>
          3 5 12 3 -1.</_>
        <_>
          3 6 12 1 3.</_></rects>
      <tilted>0</tilted></_>
    <_>
      <rects>
        <_>
          3 5 13 18 -1.</_>
        <_>
          3 14 13 9 2.</_></rects>
      <tilted>0</tilted></_>
    <_>
      <rects>
        <_>
          3 11 3 4 -1.</_>
        <_>
          3 13 3 2 2.</_></rects>
      <tilted>0</tilted></_>
    <_>
      <rects>
        <_>
          5 0 4 6 -1.</_>
        <_>
          5 0 2 3 2.</_>
        <_>
          7 3 2 3 2.</_></rects>
      <tilted>0</tilted></_>
    <_>
      <rects>
        <_>
          5 12 20 6 -1.</_>
        <_>
          5 12 10 3 2.</_>
        <_>
          15 15 10 3 2.</_></rects>
      <tilted>0</tilted></_>
    <_>
      <rects>
        <_>
          5 15 20 8 -1.</_>
        <_>
          15 15 10 8 2.</_></rects>
      <tilted>0</tilted></_>
    <_>
      <rects>
        <_>
          6 0 12 25 -1.</_>
        <_>
          10 0 4 25 3.</_></rects>
      <tilted>0</tilted></_>
    <_>
      <rects>
        <_>
          6 5 3 3 -1.</_>
        <_>
          7 5 1 3 3.</_></rects>
      <tilted>0</tilted></_>
    <_>
      <rects>
        <_>
          6 10 12 2 -1.</_>
        <_>
          6 10 6 1 2.</_>
        <_>
          12 11 6 1 2.</_></rects>
      <tilted>0</tilted></_>
    <_>
      <rects>
        <_>
          7 1 3 5 -1.</_>
        <_>
          8 1 1 5 3.</_></rects>
      <tilted>0</tilted></_>
    <_>
      <rects>
        <_>
          7 5 6 10 -1.</_>
        <_>
          7 10 6 5 2.</_></rects>
      <tilted>0</tilted></_>
    <_>
      <rects>
        <_>
          7 6 18 17 -1.</_>
        <_>
          16 6 9 17 2.</_></rects>
      <tilted>0</tilted></_>
    <_>
      <rects>
        <_>
          7 7 3 3 -1.</_>
        <_>
          7 8 3 1 3.</_></rects>
      <tilted>0</tilted></_>
    <_>
      <rects>
        <_>
          7 17 9 6 -1.</_>
        <_>
          7 20 9 3 2.</_></rects>
      <tilted>0</tilted></_>
    <_>
      <rects>
        <_>
          8 5 17 2 -1.</_>
        <_>
          8 6 17 1 2.</_></rects>
      <tilted>0</tilted></_>
    <_>
      <rects>
        <_>
          8 11 2 2 -1.</_>
        <_>
          8 11 1 1 2.</_>
        <_>
          9 12 1 1 2.</_></rects>
      <tilted>0</tilted></_>
    <_>
      <rects>
        <_>
          8 13 3 2 -1.</_>
        <_>
          9 13 1 2 3.</_></rects>
      <tilted>0</tilted></_>
    <_>
      <rects>
        <_>
          8 14 6 1 -1.</_>
        <_>
          10 14 2 1 3.</_></rects>
      <tilted>0</tilted></_>
    <_>
      <rects>
        <_>
          9 16 4 2 -1.</_>
        <_>
          9 16 2 1 2.</_>
        <_>
          11 17 2 1 2.</_></rects>
      <tilted>0</tilted></_>
    <_>
      <rects>
        <_>
          10 4 3 3 -1.</_>
        <_>
          10 5 3 1 3.</_></rects>
      <tilted>0</tilted></_>
    <_>
      <rects>
        <_>
          10 8 2 12 -1.</_>
        <_>
          10 8 1 6 2.</_>
        <_>
          11 14 1 6 2.</_></rects>
      <tilted>0</tilted></_>
    <_>
      <rects>
        <_>
          10 9 6 5 -1.</_>
        <_>
          12 9 2 5 3.</_></rects>
      <tilted>0</tilted></_>
    <_>
      <rects>
        <_>
          10 10 9 2 -1.</_>
        <_>
          10 11 9 1 2.</_></rects>
      <tilted>0</tilted></_>
    <_>
      <rects>
        <_>
          10 11 3 4 -1.</_>
        <_>
          11 11 1 4 3.</_></rects>
      <tilted>0</tilted></_>
    <_>
      <rects>
        <_>
          10 11 12 2 -1.</_>
        <_>
          10 11 6 1 2.</_>
        <_>
          16 12 6 1 2.</_></rects>
      <tilted>0</tilted></_>
    <_>
      <rects>
        <_>
          10 18 10 4 -1.</_>
        <_>
          10 18 5 2 2.</_>
        <_>
          15 20 5 2 2.</_></rects>
      <tilted>0</tilted></_>
    <_>
      <rects>
        <_>
          10 20 1 2 -1.</_>
        <_>
          10 21 1 1 2.</_></rects>
      <tilted>0</tilted></_>
    <_>
      <rects>
        <_>
          10 23 10 1 -1.</_>
        <_>
          15 23 5 1 2.</_></rects>
      <tilted>0</tilted></_>
    <_>
      <rects>
        <_>
          11 7 2 8 -1.</_>
        <_>
          11 7 1 4 2.</_>
        <_>
          12 11 1 4 2.</_></rects>
      <tilted>0</tilted></_>
    <_>
      <rects>
        <_>
          11 12 3 1 -1.</_>
        <_>
          12 12 1 1 3.</_></rects>
      <tilted>0</tilted></_>
    <_>
      <rects>
        <_>
          11 15 2 3 -1.</_>
        <_>
          12 15 1 3 2.</_></rects>
      <tilted>0</tilted></_>
    <_>
      <rects>
        <_>
          12 0 3 17 -1.</_>
        <_>
          13 0 1 17 3.</_></rects>
      <tilted>0</tilted></_>
    <_>
      <rects>
        <_>
          12 5 2 1 -1.</_>
        <_>
          13 5 1 1 2.</_></rects>
      <tilted>0</tilted></_>
    <_>
      <rects>
        <_>
          12 5 2 10 -1.</_>
        <_>
          12 5 1 5 2.</_>
        <_>
          13 10 1 5 2.</_></rects>
      <tilted>0</tilted></_>
    <_>
      <rects>
        <_>
          12 8 2 1 -1.</_>
        <_>
          13 8 1 1 2.</_></rects>
      <tilted>0</tilted></_>
    <_>
      <rects>
        <_>
          12 9 12 3 -1.</_>
        <_>
          12 10 12 1 3.</_></rects>
      <tilted>0</tilted></_>
    <_>
      <rects>
        <_>
          12 10 5 3 -1.</_>
        <_>
          12 11 5 1 3.</_></rects>
      <tilted>0</tilted></_>
    <_>
      <rects>
        <_>
          12 18 2 6 -1.</_>
        <_>
          12 20 2 2 3.</_></rects>
      <tilted>0</tilted></_>
    <_>
      <rects>
        <_>
          12 21 1 3 -1.</_>
        <_>
          12 22 1 1 3.</_></rects>
      <tilted>0</tilted></_>
    <_>
      <rects>
        <_>
          12 22 7 3 -1.</_>
        <_>
          12 23 7 1 3.</_></rects>
      <tilted>0</tilted></_>
    <_>
      <rects>
        <_>
          12 23 3 1 -1.</_>
        <_>
          13 23 1 1 3.</_></rects>
      <tilted>0</tilted></_>
    <_>
      <rects>
        <_>
          15 10 4 2 -1.</_>
        <_>
          15 10 2 1 2.</_>
        <_>
          17 11 2 1 2.</_></rects>
      <tilted>0</tilted></_>
    <_>
      <rects>
        <_>
          16 6 2 16 -1.</_>
        <_>
          16 6 1 8 2.</_>
        <_>
          17 14 1 8 2.</_></rects>
      <tilted>0</tilted></_>
    <_>
      <rects>
        <_>
          16 8 1 3 -1.</_>
        <_>
          16 9 1 1 3.</_></rects>
      <tilted>0</tilted></_>
    <_>
      <rects>
        <_>
          16 8 7 3 -1.</_>
        <_>
          16 9 7 1 3.</_></rects>
      <tilted>0</tilted></_>
    <_>
      <rects>
        <_>
          16 19 4 3 -1.</_>
        <_>
          16 20 4 1 3.</_></rects>
      <tilted>0</tilted></_>
    <_>
      <rects>
        <_>
          17 6 2 2 -1.</_>
        <_>
          17 6 1 1 2.</_>
        <_>
          18 7 1 1 2.</_></rects>
      <tilted>0</tilted></_>
    <_>
      <rects>
        <_>
          17 22 2 3 -1.</_>
        <_>
          17 23 2 1 3.</_></rects>
      <tilted>0</tilted></_>
    <_>
      <rects>
        <_>
          18 10 1 6 -1.</_>
        <_>
          18 12 1 2 3.</_></rects>
      <tilted>0</tilted></_>
    <_>
      <rects>
        <_>
          18 16 4 2 -1.</_>
        <_>
          18 16 2 1 2.</_>
        <_>
          20 17 2 1 2.</_></rects>
      <tilted>0</tilted></_>
    <_>
      <rects>
        <_>
          19 14 2 3 -1.</_>
        <_>
          19 15 2 1 3.</_></rects>
      <tilted>0</tilted></_>
    <_>
      <rects>
        <_>
          21 17 2 5 -1.</_>
        <_>
          22 17 1 5 2.</_></rects>
      <tilted>0</tilted></_>
    <_>
      <rects>
        <_>
          22 18 3 7 -1.</_>
        <_>
          23 18 1 7 3.</_></rects>
      <tilted>0</tilted></_>
    <_>
      <rects>
        <_>
          23 1 2 4 -1.</_>
        <_>
          23 1 1 2 2.</_>
        <_>
          24 3 1 2 2.</_></rects>
      <tilted>0</tilted></_>
    <_>
      <rects>
        <_>
          23 1 1 6 -1.</_>
        <_>
          23 4 1 3 2.</_></rects>
      <tilted>0</tilted></_>
    <_>
      <rects>
        <_>
          23 3 1 6 -1.</_>
        <_>
          23 6 1 3 2.</_></rects>
      <tilted>0</tilted></_>
    <_>
      <rects>
        <_>
          23 9 1 3 -1.</_>
        <_>
          23 10 1 1 3.</_></rects>
      <tilted>0</tilted></_></features></cascade>
</opencv_storage>
