<?xml version="1.0"?>
<opencv_storage>
<cascade>
  <stageType>BOOST</stageType>
  <featureType>HAAR</featureType>
  <height>24</height>
  <width>24</width>
  <stageParams>
    <boostType>GAB</boostType>
    <minHitRate>9.9500000476837158e-01</minHitRate>
    <maxFalseAlarm>5.0000000000000000e-01</maxFalseAlarm>
    <weightTrimRate>9.4999998807907104e-01</weightTrimRate>
    <maxDepth>1</maxDepth>
    <maxWeakCount>100</maxWeakCount></stageParams>
  <featureParams>
    <maxCatCount>0</maxCatCount>
    <featSize>1</featSize>
    <mode>BASIC</mode></featureParams>
  <stageNum>20</stageNum>
  <stages>
    <!-- stage 0 -->
    <_>
      <maxWeakCount>6</maxWeakCount>
      <stageThreshold>-1.8893074989318848e+00</stageThreshold>
      <weakClassifiers>
        <_>
          <internalNodes>
            0 -1 41 -2.2428192198276520e-02</internalNodes>
          <leafValues>
            5.0000000000000000e-01 -8.4259259700775146e-01</leafValues></_>
        <_>
          <internalNodes>
            0 -1 152 9.3086678534746170e-03</internalNodes>
          <leafValues>
            -6.1685150861740112e-01 2.0341822504997253e-01</leafValues></_>
        <_>
          <internalNodes>
            0 -1 23 3.1171429436653852e-03</internalNodes>
          <leafValues>
            -3.4533059597015381e-01 4.5021316409111023e-01</leafValues></_>
        <_>
          <internalNodes>
            0 -1 48 -2.9067029245197773e-03</internalNodes>
          <leafValues>
            3.9223897457122803e-01 -4.0098568797111511e-01</leafValues></_>
        <_>
          <internalNodes>
            0 -1 24 5.3348895162343979e-03</internalNodes>
          <leafValues>
            -2.7347365021705627e-01 5.3604948520660400e-01</leafValues></_>
        <_>
          <internalNodes>
            0 -1 97 9.6406079828739166e-03</internalNodes>
          <leafValues>
            -2.0561727881431580e-01 6.5678089857101440e-01</leafValues></_></weakClassifiers></_>
    <!-- stage 1 -->
    <_>
      <maxWeakCount>6</maxWeakCount>
      <stageThreshold>-1.4528846740722656e+00</stageThreshold>
      <weakClassifiers>
        <_>
          <internalNodes>
            0 -1 95 -2.1510053426027298e-02</internalNodes>
          <leafValues>
            3.3333334326744080e-01 -8.4715747833251953e-01</leafValues></_>
        <_>
          <internalNodes>
            0 -1 170 -3.5627260804176331e-02</internalNodes>
          <leafValues>
            7.7401393651962280e-01 -4.5026284456253052e-01</leafValues></_>
        <_>
          <internalNodes>
            0 -1 171 -1.2884719762951136e-03</internalNodes>
          <leafValues>
            -7.7293622493743896e-01 2.1737220883369446e-01</leafValues></_>
        <_>
          <internalNodes>
            0 -1 5 7.0716124027967453e-03</internalNodes>
          <leafValues>
            1.2452254444360733e-01 -9.0591907501220703e-01</leafValues></_>
        <_>
          <internalNodes>
            0 -1 135 -1.1822084197774529e-03</internalNodes>
          <leafValues>
            -7.8201091289520264e-01 1.4622524380683899e-01</leafValues></_>
        <_>
          <internalNodes>
            0 -1 34 -7.0441113784909248e-03</internalNodes>
          <leafValues>
            3.8685724139213562e-01 -4.1516378521919250e-01</leafValues></_></weakClassifiers></_>
    <!-- stage 2 -->
    <_>
      <maxWeakCount>7</maxWeakCount>
      <stageThreshold>-1.4593951702117920e+00</stageThreshold>
      <weakClassifiers>
        <_>
          <internalNodes>
            0 -1 100 -7.8300058841705322e-02</internalNodes>
          <leafValues>
            7.3333334922790527e-01 -8.3963131904602051e-01</leafValues></_>
        <_>
          <internalNodes>
            0 -1 16 -4.3036922812461853e-02</internalNodes>
          <leafValues>
            4.6312856674194336e-01 -4.7069901227951050e-01</leafValues></_>
        <_>
          <internalNodes>
            0 -1 133 -1.0519735515117645e-03</internalNodes>
          <leafValues>
            -8.3995771408081055e-01 1.4674779772758484e-01</leafValues></_>
        <_>
          <internalNodes>
            0 -1 99 1.3652868801727891e-03</internalNodes>
          <leafValues>
            1.5080256760120392e-01 -7.6238906383514404e-01</leafValues></_>
        <_>
          <internalNodes>
            0 -1 168 -3.3589145168662071e-03</internalNodes>
          <leafValues>
            -8.3449381589889526e-01 1.4239744842052460e-01</leafValues></_>
        <_>
          <internalNodes>
            0 -1 92 4.2589850723743439e-02</internalNodes>
          <leafValues>
            -1.6509228944778442e-01 8.8535881042480469e-01</leafValues></_>
        <_>
          <internalNodes>
            0 -1 77 -5.2923914045095444e-03</internalNodes>
          <leafValues>
            5.6278514862060547e-01 -2.0474839210510254e-01</leafValues></_></weakClassifiers></_>
    <!-- stage 3 -->
    <_>
      <maxWeakCount>8</maxWeakCount>
      <stageThreshold>-1.6802904605865479e+00</stageThreshold>
      <weakClassifiers>
        <_>
          <internalNodes>
            0 -1 60 -9.0317673981189728e-02</internalNodes>
          <leafValues>
            1. -8.3823531866073608e-01</leafValues></_>
        <_>
          <internalNodes>
            0 -1 167 -2.9913641512393951e-02</internalNodes>
          <leafValues>
            5.3382641077041626e-01 -4.7484731674194336e-01</leafValues></_>
        <_>
          <internalNodes>
            0 -1 109 -3.1856901478022337e-03</internalNodes>
          <leafValues>
            -8.5786485671997070e-01 1.3994225859642029e-01</leafValues></_>
        <_>
          <internalNodes>
            0 -1 130 -3.0176690779626369e-03</internalNodes>
          <leafValues>
            3.2759252190589905e-01 -3.6286085844039917e-01</leafValues></_>
        <_>
          <internalNodes>
            0 -1 18 -2.9078316874802113e-03</internalNodes>
          <leafValues>
            -7.5190734863281250e-01 1.8423295021057129e-01</leafValues></_>
        <_>
          <internalNodes>
            0 -1 120 4.6756519004702568e-03</internalNodes>
          <leafValues>
            -2.3730026185512543e-01 5.2153241634368896e-01</leafValues></_>
        <_>
          <internalNodes>
            0 -1 153 -7.5995866209268570e-03</internalNodes>
          <leafValues>
            -1. 1.3427528738975525e-01</leafValues></_>
        <_>
          <internalNodes>
            0 -1 108 -1.9255783408880234e-02</internalNodes>
          <leafValues>
            6.1567145586013794e-01 -2.2549721598625183e-01</leafValues></_></weakClassifiers></_>
    <!-- stage 4 -->
    <_>
      <maxWeakCount>9</maxWeakCount>
      <stageThreshold>-1.9216331243515015e+00</stageThreshold>
      <weakClassifiers>
        <_>
          <internalNodes>
            0 -1 8 -6.2640570104122162e-02</internalNodes>
          <leafValues>
            6.2500000000000000e-01 -8.3948338031768799e-01</leafValues></_>
        <_>
          <internalNodes>
            0 -1 38 -2.4414867162704468e-02</internalNodes>
          <leafValues>
            4.5262637734413147e-01 -4.7892335057258606e-01</leafValues></_>
        <_>
          <internalNodes>
            0 -1 0 1.7525315284729004e-01</internalNodes>
          <leafValues>
            1.2269241362810135e-01 -8.6354249715805054e-01</leafValues></_>
        <_>
          <internalNodes>
            0 -1 89 -4.5685041695833206e-03</internalNodes>
          <leafValues>
            -8.2698732614517212e-01 1.1125610023736954e-01</leafValues></_>
        <_>
          <internalNodes>
            0 -1 29 5.1523925503715873e-04</internalNodes>
          <leafValues>
            1.8471825122833252e-01 -5.8441811800003052e-01</leafValues></_>
        <_>
          <internalNodes>
            0 -1 164 -3.1352133955806494e-03</internalNodes>
          <leafValues>
            -7.5901472568511963e-01 1.4968705177307129e-01</leafValues></_>
        <_>
          <internalNodes>
            0 -1 35 -1.4823331497609615e-02</internalNodes>
          <leafValues>
            4.0199339389801025e-01 -2.6179364323616028e-01</leafValues></_>
        <_>
          <internalNodes>
            0 -1 125 1.1597642442211509e-03</internalNodes>
          <leafValues>
            1.6217032074928284e-01 -7.0423197746276855e-01</leafValues></_>
        <_>
          <internalNodes>
            0 -1 146 -2.2233229130506516e-02</internalNodes>
          <leafValues>
            5.9057515859603882e-01 -2.0555451512336731e-01</leafValues></_></weakClassifiers></_>
    <!-- stage 5 -->
    <_>
      <maxWeakCount>8</maxWeakCount>
      <stageThreshold>-1.5319589376449585e+00</stageThreshold>
      <weakClassifiers>
        <_>
          <internalNodes>
            0 -1 76 6.0846421867609024e-02</internalNodes>
          <leafValues>
            -8.3318054676055908e-01 1.</leafValues></_>
        <_>
          <internalNodes>
            0 -1 15 4.1229864582419395e-03</internalNodes>
          <leafValues>
            -1.7132833600044250e-01 -7.6314467191696167e-01</leafValues></_>
        <_>
          <internalNodes>
            0 -1 32 -4.2706057429313660e-03</internalNodes>
          <leafValues>
            -8.0724447965621948e-01 8.6030595004558563e-02</leafValues></_>
        <_>
          <internalNodes>
            0 -1 11 -2.0262865291442722e-04</internalNodes>
          <leafValues>
            -5.0333082675933838e-01 2.0320022106170654e-01</leafValues></_>
        <_>
          <internalNodes>
            0 -1 141 2.9852399602532387e-03</internalNodes>
          <leafValues>
            -2.2335672378540039e-01 4.8462882637977600e-01</leafValues></_>
        <_>
          <internalNodes>
            0 -1 54 -3.3883010037243366e-03</internalNodes>
          <leafValues>
            -6.3664221763610840e-01 1.8072292208671570e-01</leafValues></_>
        <_>
          <internalNodes>
            0 -1 71 -6.1314441263675690e-03</internalNodes>
          <leafValues>
            -7.4882578849792480e-01 1.1610711365938187e-01</leafValues></_>
        <_>
          <internalNodes>
            0 -1 30 -1.0809654742479324e-01</internalNodes>
          <leafValues>
            -7.8077447414398193e-01 1.2453015148639679e-01</leafValues></_></weakClassifiers></_>
    <!-- stage 6 -->
    <_>
      <maxWeakCount>9</maxWeakCount>
      <stageThreshold>-1.7515944242477417e+00</stageThreshold>
      <weakClassifiers>
        <_>
          <internalNodes>
            0 -1 68 2.0677950233221054e-02</internalNodes>
          <leafValues>
            -8.3609575033187866e-01 5.7142859697341919e-01</leafValues></_>
        <_>
          <internalNodes>
            0 -1 62 2.1273400634527206e-02</internalNodes>
          <leafValues>
            -4.3555402755737305e-01 6.0365468263626099e-01</leafValues></_>
        <_>
          <internalNodes>
            0 -1 67 4.1609825566411018e-03</internalNodes>
          <leafValues>
            1.6206237673759460e-01 -5.3790336847305298e-01</leafValues></_>
        <_>
          <internalNodes>
            0 -1 13 3.7905941717326641e-03</internalNodes>
          <leafValues>
            1.6993053257465363e-01 -5.5664175748825073e-01</leafValues></_>
        <_>
          <internalNodes>
            0 -1 156 4.0745414793491364e-02</internalNodes>
          <leafValues>
            -1.6648168861865997e-01 5.9531116485595703e-01</leafValues></_>
        <_>
          <internalNodes>
            0 -1 50 -1.0455502197146416e-02</internalNodes>
          <leafValues>
            6.0234695672988892e-01 -1.5251122415065765e-01</leafValues></_>
        <_>
          <internalNodes>
            0 -1 9 -3.4961113124154508e-04</internalNodes>
          <leafValues>
            -4.3536067008972168e-01 2.2105020284652710e-01</leafValues></_>
        <_>
          <internalNodes>
            0 -1 58 -9.9036237224936485e-04</internalNodes>
          <leafValues>
            5.4717403650283813e-01 -2.0430038869380951e-01</leafValues></_>
        <_>
          <internalNodes>
            0 -1 31 7.7807665802538395e-03</internalNodes>
          <leafValues>
            1.9027139246463776e-01 -5.8856648206710815e-01</leafValues></_></weakClassifiers></_>
    <!-- stage 7 -->
    <_>
      <maxWeakCount>8</maxWeakCount>
      <stageThreshold>-1.5951036214828491e+00</stageThreshold>
      <weakClassifiers>
        <_>
          <internalNodes>
            0 -1 123 -1.3625349849462509e-02</internalNodes>
          <leafValues>
            1. -8.3318054676055908e-01</leafValues></_>
        <_>
          <internalNodes>
            0 -1 37 -4.5054517686367035e-03</internalNodes>
          <leafValues>
            -7.1534216403961182e-01 -1.6660284250974655e-02</leafValues></_>
        <_>
          <internalNodes>
            0 -1 137 -3.1286857847589999e-05</internalNodes>
          <leafValues>
            2.4396230280399323e-01 -4.1619318723678589e-01</leafValues></_>
        <_>
          <internalNodes>
            0 -1 10 -9.3632569769397378e-04</internalNodes>
          <leafValues>
            -4.6452629566192627e-01 2.2899118065834045e-01</leafValues></_>
        <_>
          <internalNodes>
            0 -1 111 -8.1538492813706398e-03</internalNodes>
          <leafValues>
            6.7754644155502319e-01 -1.3850793242454529e-01</leafValues></_>
        <_>
          <internalNodes>
            0 -1 63 1.1841436848044395e-02</internalNodes>
          <leafValues>
            1.4641124010086060e-01 -8.3065915107727051e-01</leafValues></_>
        <_>
          <internalNodes>
            0 -1 160 -4.8460932448506355e-03</internalNodes>
          <leafValues>
            -6.6780006885528564e-01 1.4195215702056885e-01</leafValues></_>
        <_>
          <internalNodes>
            0 -1 36 3.4217531792819500e-03</internalNodes>
          <leafValues>
            1.5178164839744568e-01 -6.5106230974197388e-01</leafValues></_></weakClassifiers></_>
    <!-- stage 8 -->
    <_>
      <maxWeakCount>10</maxWeakCount>
      <stageThreshold>-1.6711534261703491e+00</stageThreshold>
      <weakClassifiers>
        <_>
          <internalNodes>
            0 -1 72 6.4564449712634087e-03</internalNodes>
          <leafValues>
            -8.4118187427520752e-01 6.4705884456634521e-01</leafValues></_>
        <_>
          <internalNodes>
            0 -1 122 -4.1938861832022667e-03</internalNodes>
          <leafValues>
            5.8029264211654663e-01 -4.8197188973426819e-01</leafValues></_>
        <_>
          <internalNodes>
            0 -1 61 -1.4619912952184677e-02</internalNodes>
          <leafValues>
            6.9093924760818481e-01 -1.6500397026538849e-01</leafValues></_>
        <_>
          <internalNodes>
            0 -1 43 -6.7069521173834801e-03</internalNodes>
          <leafValues>
            3.5698512196540833e-01 -2.9760468006134033e-01</leafValues></_>
        <_>
          <internalNodes>
            0 -1 91 -1.0242838412523270e-02</internalNodes>
          <leafValues>
            -6.4969879388809204e-01 1.5718404948711395e-01</leafValues></_>
        <_>
          <internalNodes>
            0 -1 59 1.1541812273208052e-04</internalNodes>
          <leafValues>
            2.8670760989189148e-01 -3.9115232229232788e-01</leafValues></_>
        <_>
          <internalNodes>
            0 -1 82 -6.2825204804539680e-03</internalNodes>
          <leafValues>
            4.9435871839523315e-01 -2.3227843642234802e-01</leafValues></_>
        <_>
          <internalNodes>
            0 -1 112 2.7512637898325920e-03</internalNodes>
          <leafValues>
            -1.7325413227081299e-01 6.6932237148284912e-01</leafValues></_>
        <_>
          <internalNodes>
            0 -1 131 -5.9094803873449564e-05</internalNodes>
          <leafValues>
            3.0849888920783997e-01 -3.5464441776275635e-01</leafValues></_>
        <_>
          <internalNodes>
            0 -1 158 2.1067417692393064e-03</internalNodes>
          <leafValues>
            -2.0897889137268066e-01 5.8590108156204224e-01</leafValues></_></weakClassifiers></_>
    <!-- stage 9 -->
    <_>
      <maxWeakCount>7</maxWeakCount>
      <stageThreshold>-1.7764111757278442e+00</stageThreshold>
      <weakClassifiers>
        <_>
          <internalNodes>
            0 -1 107 5.8555072173476219e-03</internalNodes>
          <leafValues>
            -8.5013878345489502e-01 1.</leafValues></_>
        <_>
          <internalNodes>
            0 -1 96 3.2763243652880192e-03</internalNodes>
          <leafValues>
            -6.0417276620864868e-01 5.1694804430007935e-01</leafValues></_>
        <_>
          <internalNodes>
            0 -1 78 6.2710260972380638e-03</internalNodes>
          <leafValues>
            -2.8273069858551025e-01 7.4931865930557251e-01</leafValues></_>
        <_>
          <internalNodes>
            0 -1 2 -4.1618269681930542e-01</internalNodes>
          <leafValues>
            -9.0997552871704102e-01 2.3070290684700012e-01</leafValues></_>
        <_>
          <internalNodes>
            0 -1 126 3.4725074656307697e-03</internalNodes>
          <leafValues>
            -2.8592327237129211e-01 6.9938540458679199e-01</leafValues></_>
        <_>
          <internalNodes>
            0 -1 102 7.2382697835564613e-03</internalNodes>
          <leafValues>
            -2.2551777958869934e-01 6.9277530908584595e-01</leafValues></_>
        <_>
          <internalNodes>
            0 -1 79 2.6025909185409546e-01</internalNodes>
          <leafValues>
            2.4136915802955627e-01 -9.7691166400909424e-01</leafValues></_></weakClassifiers></_>
    <!-- stage 10 -->
    <_>
      <maxWeakCount>9</maxWeakCount>
      <stageThreshold>-1.6894752979278564e+00</stageThreshold>
      <weakClassifiers>
        <_>
          <internalNodes>
            0 -1 88 -9.0805897489190102e-03</internalNodes>
          <leafValues>
            7.5000000000000000e-01 -8.4132844209671021e-01</leafValues></_>
        <_>
          <internalNodes>
            0 -1 46 1.0759940370917320e-02</internalNodes>
          <leafValues>
            -5.4774177074432373e-01 2.9115384817123413e-01</leafValues></_>
        <_>
          <internalNodes>
            0 -1 136 1.9386688945814967e-03</internalNodes>
          <leafValues>
            -2.5523862242698669e-01 6.0489189624786377e-01</leafValues></_>
        <_>
          <internalNodes>
            0 -1 140 6.7577296867966652e-03</internalNodes>
          <leafValues>
            -1.6177424788475037e-01 7.4597924947738647e-01</leafValues></_>
        <_>
          <internalNodes>
            0 -1 116 -2.1732875611633062e-03</internalNodes>
          <leafValues>
            4.7143644094467163e-01 -2.7826315164566040e-01</leafValues></_>
        <_>
          <internalNodes>
            0 -1 169 -1.4395974576473236e-03</internalNodes>
          <leafValues>
            -5.8532840013504028e-01 2.1197481453418732e-01</leafValues></_>
        <_>
          <internalNodes>
            0 -1 114 -3.0863324645906687e-03</internalNodes>
          <leafValues>
            5.1967781782150269e-01 -1.7510065436363220e-01</leafValues></_>
        <_>
          <internalNodes>
            0 -1 28 -5.8346055448055267e-04</internalNodes>
          <leafValues>
            -4.0560778975486755e-01 2.6080608367919922e-01</leafValues></_>
        <_>
          <internalNodes>
            0 -1 172 3.7895590066909790e-03</internalNodes>
          <leafValues>
            1.1970650404691696e-01 -7.6293992996215820e-01</leafValues></_></weakClassifiers></_>
    <!-- stage 11 -->
    <_>
      <maxWeakCount>10</maxWeakCount>
      <stageThreshold>-1.6253945827484131e+00</stageThreshold>
      <weakClassifiers>
        <_>
          <internalNodes>
            0 -1 47 2.3102644085884094e-01</internalNodes>
          <leafValues>
            -8.4339624643325806e-01 -1.5000000596046448e-01</leafValues></_>
        <_>
          <internalNodes>
            0 -1 6 -2.9459664225578308e-01</internalNodes>
          <leafValues>
            2.7105852961540222e-01 -4.5172101259231567e-01</leafValues></_>
        <_>
          <internalNodes>
            0 -1 85 2.0859232172369957e-03</internalNodes>
          <leafValues>
            1.0100924223661423e-01 -7.4052226543426514e-01</leafValues></_>
        <_>
          <internalNodes>
            0 -1 20 -1.1103332042694092e-02</internalNodes>
          <leafValues>
            -1. 6.4600691199302673e-02</leafValues></_>
        <_>
          <internalNodes>
            0 -1 75 1.6702559150871821e-05</internalNodes>
          <leafValues>
            -2.8295078873634338e-01 2.5731343030929565e-01</leafValues></_>
        <_>
          <internalNodes>
            0 -1 21 -5.6998044252395630e-02</internalNodes>
          <leafValues>
            6.3741338253021240e-01 -1.1312391608953476e-01</leafValues></_>
        <_>
          <internalNodes>
            0 -1 12 -1.1667213402688503e-03</internalNodes>
          <leafValues>
            -5.7968980073928833e-01 1.5594443678855896e-01</leafValues></_>
        <_>
          <internalNodes>
            0 -1 93 3.2194279134273529e-02</internalNodes>
          <leafValues>
            -1.5940175950527191e-01 6.0887604951858521e-01</leafValues></_>
        <_>
          <internalNodes>
            0 -1 19 7.6982080936431885e-02</internalNodes>
          <leafValues>
            1.0892180353403091e-01 -7.8609114885330200e-01</leafValues></_>
        <_>
          <internalNodes>
            0 -1 166 -5.0773955881595612e-03</internalNodes>
          <leafValues>
            -5.9751218557357788e-01 1.4947158098220825e-01</leafValues></_></weakClassifiers></_>
    <!-- stage 12 -->
    <_>
      <maxWeakCount>9</maxWeakCount>
      <stageThreshold>-1.6583513021469116e+00</stageThreshold>
      <weakClassifiers>
        <_>
          <internalNodes>
            0 -1 81 -2.2706454619765282e-02</internalNodes>
          <leafValues>
            2.2222222387790680e-01 -8.3548980951309204e-01</leafValues></_>
        <_>
          <internalNodes>
            0 -1 33 -4.9693668261170387e-03</internalNodes>
          <leafValues>
            -6.7654919624328613e-01 -1.5402396023273468e-01</leafValues></_>
        <_>
          <internalNodes>
            0 -1 127 2.1318036597222090e-03</internalNodes>
          <leafValues>
            9.2667549848556519e-02 -6.4665102958679199e-01</leafValues></_>
        <_>
          <internalNodes>
            0 -1 142 -1.1977465328527614e-04</internalNodes>
          <leafValues>
            3.0016762018203735e-01 -2.4103429913520813e-01</leafValues></_>
        <_>
          <internalNodes>
            0 -1 87 2.6453239843249321e-02</internalNodes>
          <leafValues>
            8.6650229990482330e-02 -1.</leafValues></_>
        <_>
          <internalNodes>
            0 -1 144 2.9474457260221243e-03</internalNodes>
          <leafValues>
            1.1299400031566620e-01 -5.5810815095901489e-01</leafValues></_>
        <_>
          <internalNodes>
            0 -1 52 -1.4285648940131068e-03</internalNodes>
          <leafValues>
            5.6654262542724609e-01 -1.5659390389919281e-01</leafValues></_>
        <_>
          <internalNodes>
            0 -1 121 8.4831891581416130e-03</internalNodes>
          <leafValues>
            -1.5585067868232727e-01 5.7868993282318115e-01</leafValues></_>
        <_>
          <internalNodes>
            0 -1 149 -1.4808272244408727e-03</internalNodes>
          <leafValues>
            4.2652523517608643e-01 -2.0955377817153931e-01</leafValues></_></weakClassifiers></_>
    <!-- stage 13 -->
    <_>
      <maxWeakCount>7</maxWeakCount>
      <stageThreshold>-1.6067245006561279e+00</stageThreshold>
      <weakClassifiers>
        <_>
          <internalNodes>
            0 -1 150 7.7227167785167694e-02</internalNodes>
          <leafValues>
            -8.4299063682556152e-01 6.6666670143604279e-02</leafValues></_>
        <_>
          <internalNodes>
            0 -1 1 -2.2217991948127747e-01</internalNodes>
          <leafValues>
            1.7669640481472015e-01 -5.5251967906951904e-01</leafValues></_>
        <_>
          <internalNodes>
            0 -1 173 -7.3622190393507481e-04</internalNodes>
          <leafValues>
            -6.8155544996261597e-01 1.3840045034885406e-01</leafValues></_>
        <_>
          <internalNodes>
            0 -1 115 -5.8374651707708836e-03</internalNodes>
          <leafValues>
            -9.5401799678802490e-01 9.5511235296726227e-02</leafValues></_>
        <_>
          <internalNodes>
            0 -1 90 2.8565227985382080e-03</internalNodes>
          <leafValues>
            1.3847872614860535e-01 -7.1761941909790039e-01</leafValues></_>
        <_>
          <internalNodes>
            0 -1 117 4.7023491933941841e-03</internalNodes>
          <leafValues>
            1.3786375522613525e-01 -6.1338913440704346e-01</leafValues></_>
        <_>
          <internalNodes>
            0 -1 106 -2.8452358674257994e-03</internalNodes>
          <leafValues>
            -7.2146826982498169e-01 1.3674888014793396e-01</leafValues></_></weakClassifiers></_>
    <!-- stage 14 -->
    <_>
      <maxWeakCount>11</maxWeakCount>
      <stageThreshold>-1.7862918376922607e+00</stageThreshold>
      <weakClassifiers>
        <_>
          <internalNodes>
            0 -1 134 2.3874580860137939e-02</internalNodes>
          <leafValues>
            -8.2648402452468872e-01 1.</leafValues></_>
        <_>
          <internalNodes>
            0 -1 103 -3.3632732927799225e-02</internalNodes>
          <leafValues>
            3.8849768042564392e-01 -4.1786599159240723e-01</leafValues></_>
        <_>
          <internalNodes>
            0 -1 57 -3.0638193711638451e-03</internalNodes>
          <leafValues>
            -6.3629102706909180e-01 1.2406392395496368e-01</leafValues></_>
        <_>
          <internalNodes>
            0 -1 56 1.9991615787148476e-02</internalNodes>
          <leafValues>
            7.4190422892570496e-02 -8.7052577733993530e-01</leafValues></_>
        <_>
          <internalNodes>
            0 -1 51 -6.4087999053299427e-03</internalNodes>
          <leafValues>
            -7.9454702138900757e-01 1.1199291795492172e-01</leafValues></_>
        <_>
          <internalNodes>
            0 -1 154 -6.1768900195602328e-05</internalNodes>
          <leafValues>
            2.4523253738880157e-01 -3.0014875531196594e-01</leafValues></_>
        <_>
          <internalNodes>
            0 -1 83 -1.9868064555339515e-05</internalNodes>
          <leafValues>
            2.6628330349922180e-01 -2.8193089365959167e-01</leafValues></_>
        <_>
          <internalNodes>
            0 -1 7 6.8709097104147077e-04</internalNodes>
          <leafValues>
            1.6024993360042572e-01 -4.8911640048027039e-01</leafValues></_>
        <_>
          <internalNodes>
            0 -1 73 2.5138829369097948e-03</internalNodes>
          <leafValues>
            -1.7619794607162476e-01 4.6935480833053589e-01</leafValues></_>
        <_>
          <internalNodes>
            0 -1 74 -3.4185939002782106e-03</internalNodes>
          <leafValues>
            3.8814267516136169e-01 -2.0042303204536438e-01</leafValues></_>
        <_>
          <internalNodes>
            0 -1 139 3.1671246688347310e-05</internalNodes>
          <leafValues>
            -3.2617828249931335e-01 2.5185433030128479e-01</leafValues></_></weakClassifiers></_>
    <!-- stage 15 -->
    <_>
      <maxWeakCount>11</maxWeakCount>
      <stageThreshold>-1.7767856121063232e+00</stageThreshold>
      <weakClassifiers>
        <_>
          <internalNodes>
            0 -1 69 -3.0868316069245338e-02</internalNodes>
          <leafValues>
            1.0344827920198441e-01 -8.4313726425170898e-01</leafValues></_>
        <_>
          <internalNodes>
            0 -1 64 4.1096918284893036e-03</internalNodes>
          <leafValues>
            -4.5872294902801514e-01 4.3089938163757324e-01</leafValues></_>
        <_>
          <internalNodes>
            0 -1 45 4.5255146920681000e-02</internalNodes>
          <leafValues>
            9.9724858999252319e-02 -7.3365521430969238e-01</leafValues></_>
        <_>
          <internalNodes>
            0 -1 118 -1.9076009094715118e-01</internalNodes>
          <leafValues>
            -8.3352589607238770e-01 8.0878593027591705e-02</leafValues></_>
        <_>
          <internalNodes>
            0 -1 157 -2.3367092944681644e-03</internalNodes>
          <leafValues>
            4.8310679197311401e-01 -1.8308971822261810e-01</leafValues></_>
        <_>
          <internalNodes>
            0 -1 155 3.7061120383441448e-03</internalNodes>
          <leafValues>
            -2.1603806316852570e-01 4.4179803133010864e-01</leafValues></_>
        <_>
          <internalNodes>
            0 -1 161 -2.4862680584192276e-03</internalNodes>
          <leafValues>
            -5.6313848495483398e-01 1.8437090516090393e-01</leafValues></_>
        <_>
          <internalNodes>
            0 -1 105 9.4896890223026276e-03</internalNodes>
          <leafValues>
            -1.6816464066505432e-01 5.8693099021911621e-01</leafValues></_>
        <_>
          <internalNodes>
            0 -1 151 -1.4825636520981789e-02</internalNodes>
          <leafValues>
            5.3381079435348511e-01 -1.5508316457271576e-01</leafValues></_>
        <_>
          <internalNodes>
            0 -1 39 3.0071719083935022e-04</internalNodes>
          <leafValues>
            2.1403668820858002e-01 -4.4342130422592163e-01</leafValues></_>
        <_>
          <internalNodes>
            0 -1 44 5.4104607552289963e-03</internalNodes>
          <leafValues>
            -1.6437730193138123e-01 6.2056756019592285e-01</leafValues></_></weakClassifiers></_>
    <!-- stage 16 -->
    <_>
      <maxWeakCount>9</maxWeakCount>
      <stageThreshold>-1.8012826442718506e+00</stageThreshold>
      <weakClassifiers>
        <_>
          <internalNodes>
            0 -1 147 1.9446794176474214e-03</internalNodes>
          <leafValues>
            -8.5283017158508301e-01 1.0000000149011612e-01</leafValues></_>
        <_>
          <internalNodes>
            0 -1 159 -5.0468621775507927e-03</internalNodes>
          <leafValues>
            5.3451627492904663e-01 -4.7373500466346741e-01</leafValues></_>
        <_>
          <internalNodes>
            0 -1 42 -7.6038413681089878e-04</internalNodes>
          <leafValues>
            5.2223312854766846e-01 -2.3457713425159454e-01</leafValues></_>
        <_>
          <internalNodes>
            0 -1 163 2.8747078031301498e-03</internalNodes>
          <leafValues>
            -1.6759021580219269e-01 6.0922682285308838e-01</leafValues></_>
        <_>
          <internalNodes>
            0 -1 104 4.9863341264426708e-03</internalNodes>
          <leafValues>
            -1.8107722699642181e-01 5.4295414686203003e-01</leafValues></_>
        <_>
          <internalNodes>
            0 -1 80 5.8356774970889091e-03</internalNodes>
          <leafValues>
            -1.8774077296257019e-01 5.4567325115203857e-01</leafValues></_>
        <_>
          <internalNodes>
            0 -1 101 -1.9164730329066515e-03</internalNodes>
          <leafValues>
            3.9385244250297546e-01 -2.7069133520126343e-01</leafValues></_>
        <_>
          <internalNodes>
            0 -1 128 2.4100218433886766e-03</internalNodes>
          <leafValues>
            -1.6946353018283844e-01 6.7305779457092285e-01</leafValues></_>
        <_>
          <internalNodes>
            0 -1 14 1.6153912991285324e-02</internalNodes>
          <leafValues>
            1.8009491264820099e-01 -6.6153508424758911e-01</leafValues></_></weakClassifiers></_>
    <!-- stage 17 -->
    <_>
      <maxWeakCount>10</maxWeakCount>
      <stageThreshold>-1.6209144592285156e+00</stageThreshold>
      <weakClassifiers>
        <_>
          <internalNodes>
            0 -1 148 -5.9378244914114475e-03</internalNodes>
          <leafValues>
            -9.6774190664291382e-02 -8.3910197019577026e-01</leafValues></_>
        <_>
          <internalNodes>
            0 -1 143 6.0291141271591187e-03</internalNodes>
          <leafValues>
            -5.0505357980728149e-01 1.0820505768060684e-01</leafValues></_>
        <_>
          <internalNodes>
            0 -1 145 -2.0988692995160818e-03</internalNodes>
          <leafValues>
            3.4252989292144775e-01 -2.5613835453987122e-01</leafValues></_>
        <_>
          <internalNodes>
            0 -1 55 8.4789440734311938e-04</internalNodes>
          <leafValues>
            -2.2072151303291321e-01 3.2942903041839600e-01</leafValues></_>
        <_>
          <internalNodes>
            0 -1 129 2.0078275352716446e-02</internalNodes>
          <leafValues>
            1.1832826584577560e-01 -6.4048033952713013e-01</leafValues></_>
        <_>
          <internalNodes>
            0 -1 26 2.1295552869560197e-05</internalNodes>
          <leafValues>
            -2.3474003374576569e-01 2.9020226001739502e-01</leafValues></_>
        <_>
          <internalNodes>
            0 -1 138 -4.3162237852811813e-03</internalNodes>
          <leafValues>
            4.9795198440551758e-01 -1.3976524770259857e-01</leafValues></_>
        <_>
          <internalNodes>
            0 -1 94 -1.9966855179518461e-03</internalNodes>
          <leafValues>
            2.8398978710174561e-01 -2.6739487051963806e-01</leafValues></_>
        <_>
          <internalNodes>
            0 -1 113 1.6258700052276254e-03</internalNodes>
          <leafValues>
            1.2155722081661224e-01 -7.2290408611297607e-01</leafValues></_>
        <_>
          <internalNodes>
            0 -1 40 -1.2199464254081249e-03</internalNodes>
          <leafValues>
            3.2296645641326904e-01 -2.4612224102020264e-01</leafValues></_></weakClassifiers></_>
    <!-- stage 18 -->
    <_>
      <maxWeakCount>11</maxWeakCount>
      <stageThreshold>-1.4040391445159912e+00</stageThreshold>
      <weakClassifiers>
        <_>
          <internalNodes>
            0 -1 70 2.7756204828619957e-02</internalNodes>
          <leafValues>
            -8.2481753826141357e-01 1.</leafValues></_>
        <_>
          <internalNodes>
            0 -1 22 1.4033521438250318e-05</internalNodes>
          <leafValues>
            -5.3503841161727905e-01 -6.9511085748672485e-02</leafValues></_>
        <_>
          <internalNodes>
            0 -1 86 4.8183482140302658e-03</internalNodes>
          <leafValues>
            5.3151320666074753e-02 -9.0536636114120483e-01</leafValues></_>
        <_>
          <internalNodes>
            0 -1 119 -1.1441967450082302e-02</internalNodes>
          <leafValues>
            -9.8016959428787231e-01 8.3204574882984161e-02</leafValues></_>
        <_>
          <internalNodes>
            0 -1 124 -2.2255848161876202e-03</internalNodes>
          <leafValues>
            -5.8487290143966675e-01 9.4543889164924622e-02</leafValues></_>
        <_>
          <internalNodes>
            0 -1 3 -9.3374645803123713e-04</internalNodes>
          <leafValues>
            -4.1474089026451111e-01 1.4955811202526093e-01</leafValues></_>
        <_>
          <internalNodes>
            0 -1 84 -1.4998800121247768e-02</internalNodes>
          <leafValues>
            4.6033257246017456e-01 -1.5505903959274292e-01</leafValues></_>
        <_>
          <internalNodes>
            0 -1 4 1.8073932733386755e-04</internalNodes>
          <leafValues>
            1.7868988215923309e-01 -3.8297113776206970e-01</leafValues></_>
        <_>
          <internalNodes>
            0 -1 65 3.6929412744939327e-03</internalNodes>
          <leafValues>
            -2.3012322187423706e-01 3.2822564244270325e-01</leafValues></_>
        <_>
          <internalNodes>
            0 -1 66 4.9864253960549831e-03</internalNodes>
          <leafValues>
            -1.9848714768886566e-01 3.7618643045425415e-01</leafValues></_>
        <_>
          <internalNodes>
            0 -1 53 2.9279637965373695e-04</internalNodes>
          <leafValues>
            1.9422785937786102e-01 -3.9360651373863220e-01</leafValues></_></weakClassifiers></_>
    <!-- stage 19 -->
    <_>
      <maxWeakCount>9</maxWeakCount>
      <stageThreshold>-1.5167958736419678e+00</stageThreshold>
      <weakClassifiers>
        <_>
          <internalNodes>
            0 -1 110 2.2714026272296906e-02</internalNodes>
          <leafValues>
            -8.2648402452468872e-01 1.</leafValues></_>
        <_>
          <internalNodes>
            0 -1 49 1.6910659614950418e-03</internalNodes>
          <leafValues>
            -4.4643968343734741e-01 1.6195021569728851e-01</leafValues></_>
        <_>
          <internalNodes>
            0 -1 25 5.1619997248053551e-03</internalNodes>
          <leafValues>
            5.4000213742256165e-02 -8.3778005838394165e-01</leafValues></_>
        <_>
          <internalNodes>
            0 -1 17 -3.5174496588297188e-04</internalNodes>
          <leafValues>
            -3.1848019361495972e-01 2.0986428856849670e-01</leafValues></_>
        <_>
          <internalNodes>
            0 -1 98 -2.3422297090291977e-04</internalNodes>
          <leafValues>
            2.4279630184173584e-01 -2.6864105463027954e-01</leafValues></_>
        <_>
          <internalNodes>
            0 -1 162 -1.5158446040004492e-03</internalNodes>
          <leafValues>
            3.5651785135269165e-01 -2.0042377710342407e-01</leafValues></_>
        <_>
          <internalNodes>
            0 -1 165 -2.6775649748742580e-03</internalNodes>
          <leafValues>
            -5.3159457445144653e-01 1.2263534218072891e-01</leafValues></_>
        <_>
          <internalNodes>
            0 -1 132 4.5684562064707279e-03</internalNodes>
          <leafValues>
            -1.7420335114002228e-01 3.4776914119720459e-01</leafValues></_>
        <_>
          <internalNodes>
            0 -1 27 -3.0382724944502115e-03</internalNodes>
          <leafValues>
            -4.4920489192008972e-01 1.4515358209609985e-01</leafValues></_></weakClassifiers></_></stages>
  <features>
    <_>
      <rects>
        <_>
          0 0 24 11 -1.</_>
        <_>
          12 0 12 11 2.</_></rects>
      <tilted>0</tilted></_>
    <_>
      <rects>
        <_>
          0 0 24 20 -1.</_>
        <_>
          0 10 24 10 2.</_></rects>
      <tilted>0</tilted></_>
    <_>
      <rects>
        <_>
          0 2 15 22 -1.</_>
        <_>
          0 13 15 11 2.</_></rects>
      <tilted>0</tilted></_>
    <_>
      <rects>
        <_>
          0 3 3 8 -1.</_>
        <_>
          1 3 1 8 3.</_></rects>
      <tilted>0</tilted></_>
    <_>
      <rects>
        <_>
          0 5 2 1 -1.</_>
        <_>
          1 5 1 1 2.</_></rects>
      <tilted>0</tilted></_>
    <_>
      <rects>
        <_>
          0 6 18 3 -1.</_>
        <_>
          0 7 18 1 3.</_></rects>
      <tilted>0</tilted></_>
    <_>
      <rects>
        <_>
          0 7 24 15 -1.</_>
        <_>
          8 7 8 15 3.</_></rects>
      <tilted>0</tilted></_>
    <_>
      <rects>
        <_>
          0 16 2 4 -1.</_>
        <_>
          0 16 1 2 2.</_>
        <_>
          1 18 1 2 2.</_></rects>
      <tilted>0</tilted></_>
    <_>
      <rects>
        <_>
          0 16 14 6 -1.</_>
        <_>
          0 16 7 3 2.</_>
        <_>
          7 19 7 3 2.</_></rects>
      <tilted>0</tilted></_>
    <_>
      <rects>
        <_>
          0 22 3 2 -1.</_>
        <_>
          1 22 1 2 3.</_></rects>
      <tilted>0</tilted></_>
    <_>
      <rects>
        <_>
          0 22 10 2 -1.</_>
        <_>
          0 23 10 1 2.</_></rects>
      <tilted>0</tilted></_>
    <_>
      <rects>
        <_>
          1 2 1 2 -1.</_>
        <_>
          1 3 1 1 2.</_></rects>
      <tilted>0</tilted></_>
    <_>
      <rects>
        <_>
          1 3 2 3 -1.</_>
        <_>
          1 4 2 1 3.</_></rects>
      <tilted>0</tilted></_>
    <_>
      <rects>
        <_>
          1 7 4 6 -1.</_>
        <_>
          1 10 4 3 2.</_></rects>
      <tilted>0</tilted></_>
    <_>
      <rects>
        <_>
          1 11 18 1 -1.</_>
        <_>
          7 11 6 1 3.</_></rects>
      <tilted>0</tilted></_>
    <_>
      <rects>
        <_>
          1 14 3 9 -1.</_>
        <_>
          2 14 1 9 3.</_></rects>
      <tilted>0</tilted></_>
    <_>
      <rects>
        <_>
          1 14 22 6 -1.</_>
        <_>
          1 14 11 3 2.</_>
        <_>
          12 17 11 3 2.</_></rects>
      <tilted>0</tilted></_>
    <_>
      <rects>
        <_>
          1 16 6 3 -1.</_>
        <_>
          3 16 2 3 3.</_></rects>
      <tilted>0</tilted></_>
    <_>
      <rects>
        <_>
          1 19 3 4 -1.</_>
        <_>
          2 19 1 4 3.</_></rects>
      <tilted>0</tilted></_>
    <_>
      <rects>
        <_>
          2 2 22 5 -1.</_>
        <_>
          13 2 11 5 2.</_></rects>
      <tilted>0</tilted></_>
    <_>
      <rects>
        <_>
          2 2 18 3 -1.</_>
        <_>
          2 3 18 1 3.</_></rects>
      <tilted>0</tilted></_>
    <_>
      <rects>
        <_>
          2 3 5 15 -1.</_>
        <_>
          2 8 5 5 3.</_></rects>
      <tilted>0</tilted></_>
    <_>
      <rects>
        <_>
          2 7 2 2 -1.</_>
        <_>
          2 7 1 1 2.</_>
        <_>
          3 8 1 1 2.</_></rects>
      <tilted>0</tilted></_>
    <_>
      <rects>
        <_>
          2 11 6 2 -1.</_>
        <_>
          5 11 3 2 2.</_></rects>
      <tilted>0</tilted></_>
    <_>
      <rects>
        <_>
          2 14 8 4 -1.</_>
        <_>
          2 14 4 2 2.</_>
        <_>
          6 16 4 2 2.</_></rects>
      <tilted>0</tilted></_>
    <_>
      <rects>
        <_>
          2 17 2 7 -1.</_>
        <_>
          3 17 1 7 2.</_></rects>
      <tilted>0</tilted></_>
    <_>
      <rects>
        <_>
          2 18 2 2 -1.</_>
        <_>
          3 18 1 2 2.</_></rects>
      <tilted>0</tilted></_>
    <_>
      <rects>
        <_>
          3 0 10 1 -1.</_>
        <_>
          8 0 5 1 2.</_></rects>
      <tilted>0</tilted></_>
    <_>
      <rects>
        <_>
          3 1 1 6 -1.</_>
        <_>
          3 4 1 3 2.</_></rects>
      <tilted>0</tilted></_>
    <_>
      <rects>
        <_>
          3 1 4 2 -1.</_>
        <_>
          3 2 4 1 2.</_></rects>
      <tilted>0</tilted></_>
    <_>
      <rects>
        <_>
          3 1 20 7 -1.</_>
        <_>
          13 1 10 7 2.</_></rects>
      <tilted>0</tilted></_>
    <_>
      <rects>
        <_>
          3 1 11 6 -1.</_>
        <_>
          3 3 11 2 3.</_></rects>
      <tilted>0</tilted></_>
    <_>
      <rects>
        <_>
          3 5 9 3 -1.</_>
        <_>
          3 6 9 1 3.</_></rects>
      <tilted>0</tilted></_>
    <_>
      <rects>
        <_>
          3 8 14 1 -1.</_>
        <_>
          10 8 7 1 2.</_></rects>
      <tilted>0</tilted></_>
    <_>
      <rects>
        <_>
          3 10 11 8 -1.</_>
        <_>
          3 14 11 4 2.</_></rects>
      <tilted>0</tilted></_>
    <_>
      <rects>
        <_>
          3 12 8 9 -1.</_>
        <_>
          3 15 8 3 3.</_></rects>
      <tilted>0</tilted></_>
    <_>
      <rects>
        <_>
          4 0 20 2 -1.</_>
        <_>
          4 0 10 1 2.</_>
        <_>
          14 1 10 1 2.</_></rects>
      <tilted>0</tilted></_>
    <_>
      <rects>
        <_>
          4 1 17 6 -1.</_>
        <_>
          4 3 17 2 3.</_></rects>
      <tilted>0</tilted></_>
    <_>
      <rects>
        <_>
          4 3 2 15 -1.</_>
        <_>
          4 8 2 5 3.</_></rects>
      <tilted>0</tilted></_>
    <_>
      <rects>
        <_>
          4 4 1 3 -1.</_>
        <_>
          4 5 1 1 3.</_></rects>
      <tilted>0</tilted></_>
    <_>
      <rects>
        <_>
          4 7 3 2 -1.</_>
        <_>
          5 7 1 2 3.</_></rects>
      <tilted>0</tilted></_>
    <_>
      <rects>
        <_>
          4 9 4 8 -1.</_>
        <_>
          4 9 2 4 2.</_>
        <_>
          6 13 2 4 2.</_></rects>
      <tilted>0</tilted></_>
    <_>
      <rects>
        <_>
          4 10 2 2 -1.</_>
        <_>
          4 10 1 1 2.</_>
        <_>
          5 11 1 1 2.</_></rects>
      <tilted>0</tilted></_>
    <_>
      <rects>
        <_>
          4 10 6 12 -1.</_>
        <_>
          6 10 2 12 3.</_></rects>
      <tilted>0</tilted></_>
    <_>
      <rects>
        <_>
          4 10 4 3 -1.</_>
        <_>
          4 11 4 1 3.</_></rects>
      <tilted>0</tilted></_>
    <_>
      <rects>
        <_>
          4 11 14 4 -1.</_>
        <_>
          11 11 7 4 2.</_></rects>
      <tilted>0</tilted></_>
    <_>
      <rects>
        <_>
          5 0 6 6 -1.</_>
        <_>
          7 0 2 6 3.</_></rects>
      <tilted>0</tilted></_>
    <_>
      <rects>
        <_>
          5 2 12 21 -1.</_>
        <_>
          5 9 12 7 3.</_></rects>
      <tilted>0</tilted></_>
    <_>
      <rects>
        <_>
          5 6 2 12 -1.</_>
        <_>
          5 12 2 6 2.</_></rects>
      <tilted>0</tilted></_>
    <_>
      <rects>
        <_>
          5 7 3 1 -1.</_>
        <_>
          6 7 1 1 3.</_></rects>
      <tilted>0</tilted></_>
    <_>
      <rects>
        <_>
          5 9 3 9 -1.</_>
        <_>
          6 9 1 9 3.</_></rects>
      <tilted>0</tilted></_>
    <_>
      <rects>
        <_>
          5 9 14 2 -1.</_>
        <_>
          5 9 7 1 2.</_>
        <_>
          12 10 7 1 2.</_></rects>
      <tilted>0</tilted></_>
    <_>
      <rects>
        <_>
          5 12 2 2 -1.</_>
        <_>
          5 12 1 1 2.</_>
        <_>
          6 13 1 1 2.</_></rects>
      <tilted>0</tilted></_>
    <_>
      <rects>
        <_>
          5 21 3 2 -1.</_>
        <_>
          6 21 1 2 3.</_></rects>
      <tilted>0</tilted></_>
    <_>
      <rects>
        <_>
          6 0 15 3 -1.</_>
        <_>
          6 1 15 1 3.</_></rects>
      <tilted>0</tilted></_>
    <_>
      <rects>
        <_>
          6 2 1 6 -1.</_>
        <_>
          6 4 1 2 3.</_></rects>
      <tilted>0</tilted></_>
    <_>
      <rects>
        <_>
          6 6 9 6 -1.</_>
        <_>
          6 8 9 2 3.</_></rects>
      <tilted>0</tilted></_>
    <_>
      <rects>
        <_>
          6 7 6 2 -1.</_>
        <_>
          6 8 6 1 2.</_></rects>
      <tilted>0</tilted></_>
    <_>
      <rects>
        <_>
          6 9 2 2 -1.</_>
        <_>
          6 9 1 1 2.</_>
        <_>
          7 10 1 1 2.</_></rects>
      <tilted>0</tilted></_>
    <_>
      <rects>
        <_>
          6 12 11 3 -1.</_>
        <_>
          6 13 11 1 3.</_></rects>
      <tilted>0</tilted></_>
    <_>
      <rects>
        <_>
          6 14 11 9 -1.</_>
        <_>
          6 17 11 3 3.</_></rects>
      <tilted>0</tilted></_>
    <_>
      <rects>
        <_>
          6 18 14 3 -1.</_>
        <_>
          6 19 14 1 3.</_></rects>
      <tilted>0</tilted></_>
    <_>
      <rects>
        <_>
          6 19 16 3 -1.</_>
        <_>
          6 20 16 1 3.</_></rects>
      <tilted>0</tilted></_>
    <_>
      <rects>
        <_>
          7 1 10 4 -1.</_>
        <_>
          7 1 5 2 2.</_>
        <_>
          12 3 5 2 2.</_></rects>
      <tilted>0</tilted></_>
    <_>
      <rects>
        <_>
          7 4 3 2 -1.</_>
        <_>
          8 4 1 2 3.</_></rects>
      <tilted>0</tilted></_>
    <_>
      <rects>
        <_>
          7 5 1 12 -1.</_>
        <_>
          7 9 1 4 3.</_></rects>
      <tilted>0</tilted></_>
    <_>
      <rects>
        <_>
          7 6 4 6 -1.</_>
        <_>
          7 6 2 3 2.</_>
        <_>
          9 9 2 3 2.</_></rects>
      <tilted>0</tilted></_>
    <_>
      <rects>
        <_>
          8 0 13 3 -1.</_>
        <_>
          8 1 13 1 3.</_></rects>
      <tilted>0</tilted></_>
    <_>
      <rects>
        <_>
          8 1 2 18 -1.</_>
        <_>
          8 1 1 9 2.</_>
        <_>
          9 10 1 9 2.</_></rects>
      <tilted>0</tilted></_>
    <_>
      <rects>
        <_>
          8 3 6 6 -1.</_>
        <_>
          10 3 2 6 3.</_></rects>
      <tilted>0</tilted></_>
    <_>
      <rects>
        <_>
          8 5 2 14 -1.</_>
        <_>
          8 5 1 7 2.</_>
        <_>
          9 12 1 7 2.</_></rects>
      <tilted>0</tilted></_>
    <_>
      <rects>
        <_>
          8 6 10 3 -1.</_>
        <_>
          8 7 10 1 3.</_></rects>
      <tilted>0</tilted></_>
    <_>
      <rects>
        <_>
          8 9 3 2 -1.</_>
        <_>
          9 9 1 2 3.</_></rects>
      <tilted>0</tilted></_>
    <_>
      <rects>
        <_>
          8 10 3 2 -1.</_>
        <_>
          9 10 1 2 3.</_></rects>
      <tilted>0</tilted></_>
    <_>
      <rects>
        <_>
          8 11 4 6 -1.</_>
        <_>
          8 11 2 3 2.</_>
        <_>
          10 14 2 3 2.</_></rects>
      <tilted>0</tilted></_>
    <_>
      <rects>
        <_>
          8 17 2 2 -1.</_>
        <_>
          9 17 1 2 2.</_></rects>
      <tilted>0</tilted></_>
    <_>
      <rects>
        <_>
          8 19 14 4 -1.</_>
        <_>
          8 21 14 2 2.</_></rects>
      <tilted>0</tilted></_>
    <_>
      <rects>
        <_>
          8 20 6 4 -1.</_>
        <_>
          8 20 3 2 2.</_>
        <_>
          11 22 3 2 2.</_></rects>
      <tilted>0</tilted></_>
    <_>
      <rects>
        <_>
          9 0 3 11 -1.</_>
        <_>
          10 0 1 11 3.</_></rects>
      <tilted>0</tilted></_>
    <_>
      <rects>
        <_>
          9 0 14 24 -1.</_>
        <_>
          9 12 14 12 2.</_></rects>
      <tilted>0</tilted></_>
    <_>
      <rects>
        <_>
          9 1 3 9 -1.</_>
        <_>
          10 1 1 9 3.</_></rects>
      <tilted>0</tilted></_>
    <_>
      <rects>
        <_>
          9 3 3 10 -1.</_>
        <_>
          10 3 1 10 3.</_></rects>
      <tilted>0</tilted></_>
    <_>
      <rects>
        <_>
          9 4 2 20 -1.</_>
        <_>
          9 4 1 10 2.</_>
        <_>
          10 14 1 10 2.</_></rects>
      <tilted>0</tilted></_>
    <_>
      <rects>
        <_>
          9 4 6 2 -1.</_>
        <_>
          9 4 3 1 2.</_>
        <_>
          12 5 3 1 2.</_></rects>
      <tilted>0</tilted></_>
    <_>
      <rects>
        <_>
          9 4 7 6 -1.</_>
        <_>
          9 7 7 3 2.</_></rects>
      <tilted>0</tilted></_>
    <_>
      <rects>
        <_>
          9 5 2 3 -1.</_>
        <_>
          9 6 2 1 3.</_></rects>
      <tilted>0</tilted></_>
    <_>
      <rects>
        <_>
          9 6 8 2 -1.</_>
        <_>
          9 6 4 1 2.</_>
        <_>
          13 7 4 1 2.</_></rects>
      <tilted>0</tilted></_>
    <_>
      <rects>
        <_>
          9 8 12 6 -1.</_>
        <_>
          9 8 6 3 2.</_>
        <_>
          15 11 6 3 2.</_></rects>
      <tilted>0</tilted></_>
    <_>
      <rects>
        <_>
          9 9 3 3 -1.</_>
        <_>
          10 9 1 3 3.</_></rects>
      <tilted>0</tilted></_>
    <_>
      <rects>
        <_>
          9 9 9 3 -1.</_>
        <_>
          9 10 9 1 3.</_></rects>
      <tilted>0</tilted></_>
    <_>
      <rects>
        <_>
          9 10 6 2 -1.</_>
        <_>
          9 11 6 1 2.</_></rects>
      <tilted>0</tilted></_>
    <_>
      <rects>
        <_>
          9 10 7 4 -1.</_>
        <_>
          9 12 7 2 2.</_></rects>
      <tilted>0</tilted></_>
    <_>
      <rects>
        <_>
          9 13 7 9 -1.</_>
        <_>
          9 16 7 3 3.</_></rects>
      <tilted>0</tilted></_>
    <_>
      <rects>
        <_>
          9 14 9 4 -1.</_>
        <_>
          12 14 3 4 3.</_></rects>
      <tilted>0</tilted></_>
    <_>
      <rects>
        <_>
          9 14 12 2 -1.</_>
        <_>
          9 15 12 1 2.</_></rects>
      <tilted>0</tilted></_>
    <_>
      <rects>
        <_>
          9 17 5 4 -1.</_>
        <_>
          9 19 5 2 2.</_></rects>
      <tilted>0</tilted></_>
    <_>
      <rects>
        <_>
          10 4 3 5 -1.</_>
        <_>
          11 4 1 5 3.</_></rects>
      <tilted>0</tilted></_>
    <_>
      <rects>
        <_>
          10 4 4 10 -1.</_>
        <_>
          10 4 2 5 2.</_>
        <_>
          12 9 2 5 2.</_></rects>
      <tilted>0</tilted></_>
    <_>
      <rects>
        <_>
          10 6 4 3 -1.</_>
        <_>
          10 7 4 1 3.</_></rects>
      <tilted>0</tilted></_>
    <_>
      <rects>
        <_>
          10 7 2 3 -1.</_>
        <_>
          10 8 2 1 3.</_></rects>
      <tilted>0</tilted></_>
    <_>
      <rects>
        <_>
          10 14 9 9 -1.</_>
        <_>
          10 17 9 3 3.</_></rects>
      <tilted>0</tilted></_>
    <_>
      <rects>
        <_>
          10 18 8 2 -1.</_>
        <_>
          10 19 8 1 2.</_></rects>
      <tilted>0</tilted></_>
    <_>
      <rects>
        <_>
          10 19 14 3 -1.</_>
        <_>
          10 20 14 1 3.</_></rects>
      <tilted>0</tilted></_>
    <_>
      <rects>
        <_>
          11 0 2 14 -1.</_>
        <_>
          11 7 2 7 2.</_></rects>
      <tilted>0</tilted></_>
    <_>
      <rects>
        <_>
          11 1 3 7 -1.</_>
        <_>
          12 1 1 7 3.</_></rects>
      <tilted>0</tilted></_>
    <_>
      <rects>
        <_>
          11 2 2 14 -1.</_>
        <_>
          11 2 1 7 2.</_>
        <_>
          12 9 1 7 2.</_></rects>
      <tilted>0</tilted></_>
    <_>
      <rects>
        <_>
          11 2 7 3 -1.</_>
        <_>
          11 3 7 1 3.</_></rects>
      <tilted>0</tilted></_>
    <_>
      <rects>
        <_>
          11 4 2 4 -1.</_>
        <_>
          12 4 1 4 2.</_></rects>
      <tilted>0</tilted></_>
    <_>
      <rects>
        <_>
          11 5 6 10 -1.</_>
        <_>
          11 5 3 5 2.</_>
        <_>
          14 10 3 5 2.</_></rects>
      <tilted>0</tilted></_>
    <_>
      <rects>
        <_>
          11 7 3 3 -1.</_>
        <_>
          11 8 3 1 3.</_></rects>
      <tilted>0</tilted></_>
    <_>
      <rects>
        <_>
          11 8 3 5 -1.</_>
        <_>
          12 8 1 5 3.</_></rects>
      <tilted>0</tilted></_>
    <_>
      <rects>
        <_>
          11 8 3 7 -1.</_>
        <_>
          12 8 1 7 3.</_></rects>
      <tilted>0</tilted></_>
    <_>
      <rects>
        <_>
          11 9 3 2 -1.</_>
        <_>
          12 9 1 2 3.</_></rects>
      <tilted>0</tilted></_>
    <_>
      <rects>
        <_>
          11 9 3 2 -1.</_>
        <_>
          11 10 3 1 2.</_></rects>
      <tilted>0</tilted></_>
    <_>
      <rects>
        <_>
          11 10 3 4 -1.</_>
        <_>
          12 10 1 4 3.</_></rects>
      <tilted>0</tilted></_>
    <_>
      <rects>
        <_>
          11 10 5 3 -1.</_>
        <_>
          11 11 5 1 3.</_></rects>
      <tilted>0</tilted></_>
    <_>
      <rects>
        <_>
          12 2 3 5 -1.</_>
        <_>
          13 2 1 5 3.</_></rects>
      <tilted>0</tilted></_>
    <_>
      <rects>
        <_>
          12 2 8 3 -1.</_>
        <_>
          12 3 8 1 3.</_></rects>
      <tilted>0</tilted></_>
    <_>
      <rects>
        <_>
          12 3 9 20 -1.</_>
        <_>
          12 13 9 10 2.</_></rects>
      <tilted>0</tilted></_>
    <_>
      <rects>
        <_>
          12 5 4 6 -1.</_>
        <_>
          12 7 4 2 3.</_></rects>
      <tilted>0</tilted></_>
    <_>
      <rects>
        <_>
          12 6 2 8 -1.</_>
        <_>
          12 6 1 4 2.</_>
        <_>
          13 10 1 4 2.</_></rects>
      <tilted>0</tilted></_>
    <_>
      <rects>
        <_>
          12 6 4 8 -1.</_>
        <_>
          12 6 2 4 2.</_>
        <_>
          14 10 2 4 2.</_></rects>
      <tilted>0</tilted></_>
    <_>
      <rects>
        <_>
          12 7 3 2 -1.</_>
        <_>
          13 7 1 2 3.</_></rects>
      <tilted>0</tilted></_>
    <_>
      <rects>
        <_>
          12 7 3 3 -1.</_>
        <_>
          13 7 1 3 3.</_></rects>
      <tilted>0</tilted></_>
    <_>
      <rects>
        <_>
          12 8 5 3 -1.</_>
        <_>
          12 9 5 1 3.</_></rects>
      <tilted>0</tilted></_>
    <_>
      <rects>
        <_>
          12 9 1 3 -1.</_>
        <_>
          12 10 1 1 3.</_></rects>
      <tilted>0</tilted></_>
    <_>
      <rects>
        <_>
          12 10 3 4 -1.</_>
        <_>
          13 10 1 4 3.</_></rects>
      <tilted>0</tilted></_>
    <_>
      <rects>
        <_>
          12 10 9 2 -1.</_>
        <_>
          12 11 9 1 2.</_></rects>
      <tilted>0</tilted></_>
    <_>
      <rects>
        <_>
          12 15 4 1 -1.</_>
        <_>
          14 15 2 1 2.</_></rects>
      <tilted>0</tilted></_>
    <_>
      <rects>
        <_>
          12 15 11 6 -1.</_>
        <_>
          12 17 11 2 3.</_></rects>
      <tilted>0</tilted></_>
    <_>
      <rects>
        <_>
          12 17 2 6 -1.</_>
        <_>
          12 20 2 3 2.</_></rects>
      <tilted>0</tilted></_>
    <_>
      <rects>
        <_>
          12 21 1 2 -1.</_>
        <_>
          12 22 1 1 2.</_></rects>
      <tilted>0</tilted></_>
    <_>
      <rects>
        <_>
          13 1 1 14 -1.</_>
        <_>
          13 8 1 7 2.</_></rects>
      <tilted>0</tilted></_>
    <_>
      <rects>
        <_>
          13 2 1 3 -1.</_>
        <_>
          13 3 1 1 3.</_></rects>
      <tilted>0</tilted></_>
    <_>
      <rects>
        <_>
          13 2 3 6 -1.</_>
        <_>
          14 2 1 6 3.</_></rects>
      <tilted>0</tilted></_>
    <_>
      <rects>
        <_>
          13 8 1 3 -1.</_>
        <_>
          13 9 1 1 3.</_></rects>
      <tilted>0</tilted></_>
    <_>
      <rects>
        <_>
          13 8 3 2 -1.</_>
        <_>
          14 8 1 2 3.</_></rects>
      <tilted>0</tilted></_>
    <_>
      <rects>
        <_>
          13 16 3 1 -1.</_>
        <_>
          14 16 1 1 3.</_></rects>
      <tilted>0</tilted></_>
    <_>
      <rects>
        <_>
          13 20 3 3 -1.</_>
        <_>
          13 21 3 1 3.</_></rects>
      <tilted>0</tilted></_>
    <_>
      <rects>
        <_>
          13 21 2 2 -1.</_>
        <_>
          13 21 1 1 2.</_>
        <_>
          14 22 1 1 2.</_></rects>
      <tilted>0</tilted></_>
    <_>
      <rects>
        <_>
          14 0 2 12 -1.</_>
        <_>
          14 0 1 6 2.</_>
        <_>
          15 6 1 6 2.</_></rects>
      <tilted>0</tilted></_>
    <_>
      <rects>
        <_>
          14 5 3 3 -1.</_>
        <_>
          15 5 1 3 3.</_></rects>
      <tilted>0</tilted></_>
    <_>
      <rects>
        <_>
          14 6 2 2 -1.</_>
        <_>
          14 6 1 1 2.</_>
        <_>
          15 7 1 1 2.</_></rects>
      <tilted>0</tilted></_>
    <_>
      <rects>
        <_>
          14 8 4 8 -1.</_>
        <_>
          14 8 2 4 2.</_>
        <_>
          16 12 2 4 2.</_></rects>
      <tilted>0</tilted></_>
    <_>
      <rects>
        <_>
          14 9 9 3 -1.</_>
        <_>
          14 10 9 1 3.</_></rects>
      <tilted>0</tilted></_>
    <_>
      <rects>
        <_>
          14 10 4 4 -1.</_>
        <_>
          14 10 2 2 2.</_>
        <_>
          16 12 2 2 2.</_></rects>
      <tilted>0</tilted></_>
    <_>
      <rects>
        <_>
          15 9 2 15 -1.</_>
        <_>
          15 14 2 5 3.</_></rects>
      <tilted>0</tilted></_>
    <_>
      <rects>
        <_>
          15 13 2 2 -1.</_>
        <_>
          15 13 1 1 2.</_>
        <_>
          16 14 1 1 2.</_></rects>
      <tilted>0</tilted></_>
    <_>
      <rects>
        <_>
          16 3 2 4 -1.</_>
        <_>
          16 3 1 2 2.</_>
        <_>
          17 5 1 2 2.</_></rects>
      <tilted>0</tilted></_>
    <_>
      <rects>
        <_>
          16 6 2 4 -1.</_>
        <_>
          16 6 1 2 2.</_>
        <_>
          17 8 1 2 2.</_></rects>
      <tilted>0</tilted></_>
    <_>
      <rects>
        <_>
          16 6 4 18 -1.</_>
        <_>
          16 12 4 6 3.</_></rects>
      <tilted>0</tilted></_>
    <_>
      <rects>
        <_>
          16 8 4 6 -1.</_>
        <_>
          16 11 4 3 2.</_></rects>
      <tilted>0</tilted></_>
    <_>
      <rects>
        <_>
          16 13 8 4 -1.</_>
        <_>
          20 13 4 4 2.</_></rects>
      <tilted>0</tilted></_>
    <_>
      <rects>
        <_>
          17 6 2 16 -1.</_>
        <_>
          18 6 1 16 2.</_></rects>
      <tilted>0</tilted></_>
    <_>
      <rects>
        <_>
          17 12 2 2 -1.</_>
        <_>
          17 12 1 1 2.</_>
        <_>
          18 13 1 1 2.</_></rects>
      <tilted>0</tilted></_>
    <_>
      <rects>
        <_>
          17 13 1 9 -1.</_>
        <_>
          17 16 1 3 3.</_></rects>
      <tilted>0</tilted></_>
    <_>
      <rects>
        <_>
          18 0 6 18 -1.</_>
        <_>
          18 0 3 9 2.</_>
        <_>
          21 9 3 9 2.</_></rects>
      <tilted>0</tilted></_>
    <_>
      <rects>
        <_>
          18 13 1 4 -1.</_>
        <_>
          18 15 1 2 2.</_></rects>
      <tilted>0</tilted></_>
    <_>
      <rects>
        <_>
          18 13 2 3 -1.</_>
        <_>
          18 14 2 1 3.</_></rects>
      <tilted>0</tilted></_>
    <_>
      <rects>
        <_>
          18 14 3 3 -1.</_>
        <_>
          18 15 3 1 3.</_></rects>
      <tilted>0</tilted></_>
    <_>
      <rects>
        <_>
          18 15 4 8 -1.</_>
        <_>
          20 15 2 8 2.</_></rects>
      <tilted>0</tilted></_>
    <_>
      <rects>
        <_>
          18 16 3 5 -1.</_>
        <_>
          19 16 1 5 3.</_></rects>
      <tilted>0</tilted></_>
    <_>
      <rects>
        <_>
          18 17 4 2 -1.</_>
        <_>
          18 17 2 1 2.</_>
        <_>
          20 18 2 1 2.</_></rects>
      <tilted>0</tilted></_>
    <_>
      <rects>
        <_>
          18 20 6 2 -1.</_>
        <_>
          18 20 3 1 2.</_>
        <_>
          21 21 3 1 2.</_></rects>
      <tilted>0</tilted></_>
    <_>
      <rects>
        <_>
          19 17 3 4 -1.</_>
        <_>
          20 17 1 4 3.</_></rects>
      <tilted>0</tilted></_>
    <_>
      <rects>
        <_>
          20 4 4 2 -1.</_>
        <_>
          22 4 2 2 2.</_></rects>
      <tilted>0</tilted></_>
    <_>
      <rects>
        <_>
          20 13 4 6 -1.</_>
        <_>
          22 13 2 6 2.</_></rects>
      <tilted>0</tilted></_>
    <_>
      <rects>
        <_>
          20 14 4 9 -1.</_>
        <_>
          20 17 4 3 3.</_></rects>
      <tilted>0</tilted></_>
    <_>
      <rects>
        <_>
          20 17 3 3 -1.</_>
        <_>
          21 17 1 3 3.</_></rects>
      <tilted>0</tilted></_>
    <_>
      <rects>
        <_>
          21 7 2 12 -1.</_>
        <_>
          21 11 2 4 3.</_></rects>
      <tilted>0</tilted></_>
    <_>
      <rects>
        <_>
          21 14 3 9 -1.</_>
        <_>
          21 17 3 3 3.</_></rects>
      <tilted>0</tilted></_>
    <_>
      <rects>
        <_>
          21 18 3 3 -1.</_>
        <_>
          22 18 1 3 3.</_></rects>
      <tilted>0</tilted></_>
    <_>
      <rects>
        <_>
          22 14 2 10 -1.</_>
        <_>
          23 14 1 10 2.</_></rects>
      <tilted>0</tilted></_>
    <_>
      <rects>
        <_>
          23 4 1 3 -1.</_>
        <_>
          23 5 1 1 3.</_></rects>
      <tilted>0</tilted></_></features></cascade>
</opencv_storage>
